-0.0041    0.8467   -0.6334      0.65   -0.9169    0.5724   -0.1478    0.9358   -0.6962    0.4464         
0.5705   -0.8145    0.3281   -0.6827    0.9961   -0.0491    0.2995   -0.1942    0.4827   -0.5436         
-0.2391    0.4604   -0.3902    0.0153   -0.0292    0.2382   -0.7421    0.8716   -0.9718    0.9895         
0.5447   -0.1726    0.4771   -0.1538    0.1869   -0.9912    0.5667   -0.6299    0.7035   -0.9894         
-0.8703    0.3811   -0.1322    0.0333   -0.7673    0.4664   -0.5141    0.7711   -0.8253    0.6868         
0.5547   -0.7644    0.2662   -0.2757    0.0037   -0.2859    0.8723   -0.9741    0.7529   -0.0778         
-0.2316    0.3035    -0.219    0.1842   -0.0288    0.0106    -0.904    0.8942   -0.9264    0.2648         
0.7446   -0.3805     0.589   -0.6729     0.437    -0.535    0.5006   -0.1101    0.4393   -0.3548         
-0.9629    0.2623   -0.4084    0.9954   -0.8756     0.184   -0.4966    0.7376   -0.3931    0.6308         
0.6944   -0.2439    0.4626   -0.1323    0.5537   -0.1538    0.6118   -0.2082    0.2929   -0.6541         

-0.4833    0.1115   -0.4639    0.9658   -0.2704     0.993   -0.3977    0.2306   -0.1673    0.2386         
0.5021   -0.8745    0.6924   -0.9072     0.627   -0.5829    0.6777   -0.5573    0.5097   -0.6512         
-0.3986     0.329   -0.9161    0.8636   -0.2355    0.4767   -0.3655    0.5574   -0.4031    0.2052         
0.735    -0.115    0.6941   -0.1724    0.3966    -0.343    0.1107   -0.0191    0.8007   -0.1337         
-0.5457    0.2287   -0.7753    0.0383   -0.4945    0.8909   -0.2209    0.9758   -0.4221    0.8588         
0.6422   -0.4946    0.7506    -0.303    0.6413   -0.9168      0.09   -0.2591    0.8762   -0.1655         
-0.741    0.6359   -0.7624    0.0537   -0.1548    0.6483   -0.7595    0.4041   -0.3602     0.435         
0.0291   -0.0836    0.9374    -0.102    0.4596   -0.4021    0.7348   -0.3199    0.9668   -0.4484         
-0.8281    0.4734   -0.0053    0.1999   -0.6418    0.7938     -0.69    0.3788   -0.8127    0.0467         
0.3728   -0.4893    0.4648   -0.2483    0.7807   -0.2421     0.431   -0.6617    0.2813   -0.9514         

-0.4309    0.7616   -0.8935    0.7451     -0.06    0.5249   -0.6519    0.1556   -0.2798    0.0303         
0.6224   -0.1008    0.5844   -0.2609    0.4989   -0.2702    0.3195   -0.0485    0.3093   -0.4343         

