-9.90465   3.38919  -8.25254         
-8.20368   1.62979  -5.61938         
-9.46001   2.46088  -7.37352         
-7.53062    1.3845  -5.30085         
-9.8994   2.95921  -7.58759         
-5.08751  0.947337  -3.75838         
-10.1155   2.82326  -7.82072         
-7.0798   2.01881  -5.88119         
-10.1846   2.80514  -7.97991         
-7.28842    1.8615  -5.56272         
-10.5216   3.05902  -8.90607         
-7.78839   1.22115  -5.28433         
-11.3879   3.48382  -9.12629         
-7.99136   1.16046  -5.94012         
-9.66976   2.52779  -7.81468         
-7.05721   1.12033  -4.95629         
-10.101   2.57557  -8.09666         
-8.11478   1.67711   -6.0882         
-9.60449   3.12007  -7.54424         
-6.42161   1.85718  -4.95271         

-0.492319  0.551536  -1.00672 -0.056092  -1.00774 -0.987716 -0.432428  0.272078 -0.204041 -0.339777 -0.848294 -0.185475 -0.338192 -0.313297 -0.910121-0.0953049 -0.831835  0.352177  -1.06859-0.0886733         
0.423207 -0.869499  0.516298  -1.06671  0.694453  -2.29051  0.318374  -1.24466 -0.145398  -1.48004  0.831205  -1.18017  0.113002 -0.623741   0.13252 -0.999243 -0.221171  -1.07349  0.275745  -1.56685         
-0.401697  0.379058 -0.808245  0.128829 -0.901923 -0.344733 -0.433704 -0.258307  -0.93619 -0.242602 -0.279947-0.00315288 -0.276481  0.230771   -0.6517 -0.293309 -0.541775 -0.250555  -0.48739 -0.480183         

