-0.757958  0.107181 -0.287729  0.851894  -0.97058  0.295755 -0.432112  0.720084 -0.167089  0.187536 -0.658345  -2.84425  -3.90889 0.0501114 -0.103458  0.859584 -0.416608 0.0482192  -3.55258  0.570482  -0.82754  -2.23074 -0.335887  0.780419 -0.553667  -2.46722 -0.190161  0.870998-0.0580767  0.625996  -3.72501 0.0997955 -0.808679   -3.0085 -0.552873   0.33549 -0.698172  0.530808  -3.75785 0.0913419 -0.567888   0.64452  -3.84394  0.764458 -0.115818    -2.929 -0.598376  0.485733 -0.971221  0.788446 -0.866909  -2.65604  -3.35971   0.28016 -0.778924  0.396649 -0.134617  0.847987 -0.324107  0.353191  -0.47496  0.238075 -0.797449  0.371471         
0.998047 -0.2573630.00729392 -0.839198  0.601825 -0.528764  0.634144 -0.567095  0.797815 -0.186316  0.770531  -1.83994 -0.723877 -0.665761   0.17423-0.0506607  0.164556 -0.247108  -1.28093 -0.296945  0.790155  -2.05183  0.399152 -0.225379  0.845607  -1.87278  0.444868 -0.150365  0.120762 -0.641835  -1.34316 -0.381359 0.0528275  -2.08906  0.692251 -0.489212  0.552843 -0.925626 -0.711761 -0.371197  0.435255  -0.32786 -0.971352-0.0211798  0.732719  -1.65542  0.962157 -0.411054  0.676626 -0.634419   0.22364  -1.93604 -0.921515  -0.61568  0.366771-0.00613422  0.718162 -0.267586  0.335887 -0.162145  0.546556 -0.434187  0.257607-0.00173956         
-0.606189  0.342357 -0.805231  0.943022 -0.828822  0.138585 -0.213477  0.758812 -0.964843  0.865291 -0.975005  -1.71509  -2.42834 0.0324717 -0.749474  0.454848-0.0935392  0.441847  -2.84479  0.689261 -0.200537  -1.90891 -0.508194  0.509659 -0.689962  -2.21935 -0.936888  0.819452 -0.709616  0.993316  -2.40371  0.136204 -0.197333  -2.03926 -0.700003  0.389325 -0.113559  0.366192  -2.75302 0.0162358 -0.777398  0.876003  -3.31591  0.263833 -0.587207  -1.62283 -0.979827  0.101199 -0.907834  0.442061-0.0781884  -1.67764  -2.73187  0.503311  -0.30607   0.53795  -0.60506  0.566149  -0.34373 0.0844447 -0.973449  0.478561 -0.430769  0.719596         
0.271859 -0.293802  0.886563 -0.548143  0.497238 -0.588153  0.781457 -0.461196  0.170049 -0.718589    0.7893  -2.54335  -1.58165 -0.175726  0.753044 -0.300607  0.518052 -0.689077 -0.845572 -0.257149  0.529466  -2.08032  0.899319 -0.924284   0.21366  -2.48091   0.80871 -0.450514  0.107791 -0.830714  -1.09088 -0.717948  0.181585  -2.39362 0.0311899 -0.670644  0.476119 -0.565477  -1.59178 -0.442488  0.346232-0.0329905  -1.13211 -0.189673  0.587451    -2.117  0.825251-0.0346995  0.229255 -0.518052  0.510605  -1.86806   -1.5648 -0.780999 0.0830714 -0.533097  0.172277 -0.612751  0.740226 -0.942381  0.288736  -0.77163  0.115726 -0.128544         
-0.184545  0.543352  -0.95642  0.539323 -0.952849  0.840358 -0.449355  0.340281  -0.41551  0.740349 -0.230995  -1.93713  -2.90393  0.620838 -0.608753  0.316477 -0.252541  0.545427  -2.47761 0.0104373 -0.747551  -2.39213 -0.308817  0.260201 -0.043672   -2.4069 -0.702994  0.115818-0.0985443  0.804498  -2.72139  0.980041 -0.445051  -2.43025  -0.64095  0.467879 -0.236152   0.73629  -3.11472  0.565935  -0.39375 0.0430311  -2.45173  0.995972 -0.141697  -1.84924 -0.172216    0.1901 -0.705405  0.668966 -0.100925  -1.66664  -2.90875  0.786584 -0.684194 0.0325632 -0.296823  0.776543 -0.417951 0.0581378 -0.525742  0.213721 -0.611377  0.332133         
0.0336314-0.0226447  0.219825 -0.301309 0.0412305 -0.358043  0.828578  -0.56209  0.203101 -0.424696  0.817713  -4.40267   -3.5686 -0.393231  0.240455  -0.73101  0.611469 -0.067568  -3.46737 -0.458846  0.325571  -4.37346  0.973083 -0.808466  0.306955   -4.8483  0.762291 -0.387677  0.965117-0.0650044  -3.72244 -0.275979  0.927183  -4.78265  0.984344 -0.415815  0.489425 -0.591571  -3.37804 -0.802637  0.671926 -0.650258  -3.27678 -0.379925  0.158147  -4.86566  0.194586-0.0458388  0.900723 -0.201483  0.929289  -4.58984   -3.2386 -0.357952  0.595691  -0.57741  0.355571 -0.926664  0.769494 -0.254067  0.217627 -0.205267  0.716483 -0.933866         
-0.00863674  0.163335 -0.381909  0.718894 -0.108219  0.104129-0.0303659  0.792657 -0.534806  0.765831 -0.567003  -1.12886  -1.79786 0.0182806-0.0719626  0.272652 -0.409284  0.812159  -2.28835  0.612171 -0.234169  -1.17388 -0.628407  0.360118 -0.630451  -1.27334   -0.6292  0.338298 -0.490616  0.262673  -2.26531  0.459334-0.0674154 -0.924939-0.0163884  0.649251 -0.831568  0.344218  -1.93013 0.0685141  -0.43263 0.0987884  -2.58872  0.538865-0.0449843  -1.60178 -0.566179  0.580523 -0.879635  0.922269 -0.575732 -0.741553  -1.85264  0.833033 -0.803919  0.208594 -0.225562  0.432264 -0.687399  0.852443 -0.397565  0.646657 -0.729881 0.0372326         
0.799036 -0.897061  0.647755 -0.176824  0.999512  -0.54152  0.666128 -0.197943  0.912564  -0.25779   0.99646  -2.60855   -2.0315 -0.521409 0.0271004 -0.169958  0.960417  -0.83578  -2.11815 -0.980163   0.94409  -3.24675  0.511124 -0.206122  0.141118  -2.54043  0.446272 -0.539964  0.958312 -0.547868  -1.45956 -0.883633  0.805261  -3.32164  0.192236 -0.802881  0.358318 -0.707083  -1.79239 -0.779717    0.4279 -0.132756   -1.8772 -0.170019  0.710471  -2.71689  0.460829 -0.272622   0.20658 -0.137883  0.120334   -2.7919  -1.78977-0.0496841  0.795221 -0.467208   0.28367 -0.162481  0.564257 -0.675466  0.598804 -0.938261  0.450392 -0.245796         
-0.594165  0.655416 -0.722373  0.559893-0.0606708  0.633106 -0.847133  0.444014 -0.338328  0.894833   -0.1236  -3.45407   -4.1177  0.427992  -0.52971  0.151433-0.0793176   0.69512  -4.65946  0.572588 -0.426008  -3.29296 -0.357555  0.137547 -0.465926  -3.60749 -0.856105 0.0649129 -0.151372  0.571001  -4.16796  0.402326 -0.580096  -3.81218 -0.466933 0.0115055 -0.665395  0.893094  -4.83189  0.852199 -0.909696  0.996368  -4.60932  0.470717 -0.562731  -3.41916 -0.552355   0.10062 -0.946104   0.65508 -0.143193  -3.56617  -4.07103  0.345805 -0.555864  0.394177 -0.406903  0.486465 -0.292673 0.0454421 -0.854518  0.980499 -0.176885  0.663045         
0.0835597 -0.370098  0.810907 -0.252815  0.137547 -0.841762  0.184698  -0.69686  0.314066 -0.171026  0.466079  -2.83808  -1.80381 -0.763421  0.503586 -0.445631 0.0804773  -0.44676  -2.25627 -0.899197  0.150639  -2.50234  0.404035 -0.445387  0.731803  -2.609520.00122074 -0.485458  0.353008 -0.482437  -2.01075 -0.368969    0.3314  -2.56274  0.295572  -0.90997  0.848506 -0.615101  -2.04322 -0.701926  0.629872 -0.433699   -1.8917 -0.138157  0.509995  -2.97294 0.0145573 -0.543107  0.662526 -0.780419  0.724387  -2.65143  -1.55166 -0.559313  0.572253 -0.530595  0.972167 -0.273324  0.265206 -0.784631  0.697928 -0.173711  0.708182 -0.892483         
-0.456679  0.472732 -0.618427  0.140385 -0.575793  0.130345 -0.790246  0.622517 -0.841731 0.0805078-0.0414441   -2.2486  -3.04302 0.0530412   -0.3726   0.78103 -0.778375   0.64742   -3.1456  0.969787-0.0886868  -1.96023 -0.386914  0.920652 -0.565722  -2.37018 -0.524277  0.873867 -0.346446  0.932585  -3.73396  0.637104 -0.498672  -2.55274 -0.633198  0.632893 -0.503281 0.0860012  -3.62449  0.244972  -0.84048  0.688894  -3.56819   0.36964 -0.960479  -2.01226 -0.521317  0.578539 -0.420392  0.320536 -0.443983  -1.97631  -3.24359  0.028077 -0.830683  0.917478 -0.856471   0.89227 -0.374432  0.215278 -0.162175  0.418378 -0.343059 0.0376293         
0.402936 -0.894955  0.349956  -0.60741  0.221076 -0.961821  0.275002 -0.386975  0.423231 -0.117466   0.36729  -2.81417  -1.76457 -0.322306 0.0605487  -0.38612   0.48735  -0.35371  -1.38581 -0.294076  0.710898  -1.98809  0.542497 -0.854335 0.0946074  -2.15344  0.567827 -0.802362  0.414869-0.0717795  -1.13003 -0.560167 0.0213019  -2.10388  0.934965 -0.815149  0.725517-0.0187078  -1.38462 -0.897366  0.293405 -0.506119  -1.32441 -0.862453  0.822352  -1.98159  0.246437 -0.685446  0.784143  -0.58211  0.382061   -2.3913  -1.90343 -0.589984  0.817499-0.0957366  0.436689 -0.212348 0.0129093 -0.159673  0.780572  -0.11478  0.880398 -0.702048         
-0.11182  0.068392 -0.710654   0.53856 -0.419141   0.29902 -0.750389   0.65627-0.0605792  0.276009 -0.461165  -2.38706  -3.29221 0.0965911 -0.991302  0.989471-0.0219428  0.122227  -3.84014  0.881924 -0.987915  -2.92532 -0.607105 0.0374767 -0.945463  -2.06103 -0.774438  0.343211 -0.341502  0.550523  -3.80669   0.99176 -0.338786   -2.1463 -0.155828  0.591449 -0.110843  0.626148  -3.65138   0.57506 -0.240638   0.12949  -3.05868  0.813807 -0.503861  -2.63072 -0.863735  0.842372 -0.818232  0.371776 -0.118686  -2.34659  -3.58864  0.582934 -0.518998   0.10651 -0.589862  0.602771-0.0732444  0.940092  -0.58623  0.163396 -0.619007  0.989196         
0.272774 -0.924711  0.905545 -0.318705 0.0156865 -0.604846  0.827631 -0.596393  0.255715 -0.050264  0.840663  -5.23179  -3.76513 -0.401288 0.0886258 -0.819575  0.696615-0.00967437  -3.98315 -0.242958  0.390423  -4.52409  0.817072 -0.761132  0.245155  -5.24219   0.28666-0.0686972  0.409497  -0.51912  -3.54375 -0.285348  0.390545  -4.51503  0.750969 -0.596576  0.755058 -0.621143  -4.04291 -0.694143  0.434156 -0.303201  -4.15164 -0.920988  0.913205  -5.06293  0.547044 -0.527787 0.0870693 -0.996185  0.734001  -5.20652  -4.19632 -0.844813  0.421522 -0.490768  0.692862 -0.932676  0.948057 -0.378765  0.112369 -0.964599  0.357707 -0.502579         
-0.0752281  0.895535 -0.639698  0.832545 -0.356426  0.842219 -0.618122  0.873409-0.0105594    0.4344 -0.523362  -2.62614  -3.46568  0.761773 -0.776391  0.604938 -0.325755   0.57268  -2.71843  0.387066 -0.889187  -1.81981  -0.90875  0.816248 -0.620716  -2.06176 -0.747124 0.0511185 -0.402112  0.627979  -3.11154  0.294443 -0.616077   -2.4745 -0.675436    0.9653 -0.253731   0.21659  -3.13794  0.170537 -0.125858   0.27131  -3.55622  0.381237 -0.458541  -2.40613 -0.970244  0.720237 -0.655171   0.26191 -0.807978  -1.93368  -3.20654  0.713492 -0.511399  0.289499  -0.62273  0.571123 -0.529832  0.797998 -0.392254  0.418714 -0.395337  0.345775         
0.208655 -0.912503  0.118198 -0.464827  0.287027 -0.474013  0.733177 -0.653249  0.827143 -0.922575 0.0268258  -2.67969  -1.55038 -0.203406  0.978423 -0.574084  0.223884 -0.867855  -1.41817 -0.823969  0.954894  -2.82398  0.118412 -0.493851  0.199072  -2.83945  0.298379 -0.862728  0.602557-0.0274667   -1.8718   -0.3726  0.954802  -3.25997  0.384289 -0.332377  0.702689 -0.125431  -2.13801 -0.420362 0.0677206 -0.778039  -2.24336 -0.891873 0.0481277  -2.43062  0.307047 -0.898221 0.0869167 -0.475661  0.420759  -3.18577  -1.67529-0.0268868  0.274941-0.0437635   0.75634 -0.387341  0.211219-0.0199896  0.959044 -0.926237  0.530717 -0.122227         
-0.862514   0.40727-0.0461745  0.100375 -0.153233  0.463088 -0.284097  0.602039 -0.707297  0.508866 -0.368664  -1.51061  -2.95197  0.251656 -0.118503  0.455519  -0.20542  0.451857  -2.54412  0.563433 -0.558184  -2.06364  -0.18244  0.585009 -0.607196  -1.54211 -0.583026  0.575732  -0.79397  0.368053  -2.16209  0.373302 -0.846156  -1.20711 -0.832667  0.832606 -0.697562  0.560503  -3.09773  0.359569 -0.511704 0.0674459  -2.32433  0.650136-0.0901517  -1.25838 -0.231391 0.0402234 -0.446821  0.444075 -0.152409  -1.78241  -2.98597  0.122868 -0.698538   0.79458 -0.970702   0.75045 -0.884762  0.367077 -0.845912  0.387463 -0.062685  0.935545         
0.726249 -0.311441  0.628681 -0.123936  0.800745 -0.272378   0.88229 -0.885708   0.15305  -0.68746 0.0664083  -2.53496  -1.65377 -0.931883  0.120548 -0.477798  0.584826 -0.381298  -1.84927 -0.115207  0.169836  -2.38991  0.337138 -0.380688  0.972015  -2.69738  0.743614 -0.762474   0.25959 -0.800073   -1.5226 -0.650075  0.229621  -2.59069  0.475539 -0.100681  0.334056 -0.234718   -1.5783 -0.404218  0.209754 -0.883755  -1.25785 -0.353282  0.492813  -2.08683  0.917081 -0.624866  0.299326 -0.473769 0.0830409  -2.20622  -1.37373 -0.839381  0.268441-0.0828883  0.642689 -0.529588  0.943052 -0.661519  0.586077 -0.202826  0.790094 -0.389172         
-0.989319 0.0567034 -0.570757  0.420301 -0.575213  0.864772 -0.638997  0.170293 -0.166356  0.452498   -0.1377 -0.687519  -2.24186  0.769433 -0.408338  0.369396 -0.176519  0.212867  -2.18293  0.489059 -0.760582  -1.17871 -0.318857  0.671926 -0.920499   -0.7741 -0.422742  0.495132 -0.782647  0.973907  -1.57411 0.0563982 -0.544633  -1.11621 -0.268075  0.271462 -0.207923  0.360973   -1.6465   0.47029   -0.4138  0.471053  -1.72881  0.198584 -0.664296  -1.20948 -0.037904  0.630573 -0.708884   0.37138 -0.792688  -1.03976  -1.91757  0.514267 -0.971038  0.949797 -0.649373 0.0938444 -0.278634  0.225501 -0.212775  0.272713-0.0116886  0.586627         
0.341136 -0.574725  0.077517 -0.374157  0.322367 -0.703146  0.165563 -0.621815  0.249184 -0.298074   0.10007  -2.90193  -2.33575 -0.789727  0.905698 -0.358837  0.295022-0.00320444  -2.16198   -0.1948  0.801019  -3.45114  0.363903 -0.749748  0.579577  -3.29528  0.762963 -0.346049   0.64629-0.0399487  -2.63169 -0.945891  0.730674  -3.48657  0.665334 -0.979644  0.414838 -0.652181  -1.99931 -0.973815  0.875881 -0.573504  -2.58075 -0.883358  0.512803  -3.76081  0.767724 -0.535875  0.239906 -0.443556  0.361431  -2.87211  -2.05214 -0.985412  0.292611 -0.936277  0.367595 -0.312449  0.284127 -0.881436  0.259163 -0.997528  0.526383 -0.131443         
-0.971252  0.297037  -0.85406  0.870357 -0.387921  0.750359 -0.573351  0.906339 -0.403455   0.21839 -0.971129  -3.88384  -4.90606  0.518174-0.0364086  0.174627 -0.754753  0.308908  -4.58052  0.242134  -0.26191  -3.76705 -0.208594  0.405103  -0.57622  -4.10974 -0.406873  0.387463 -0.633747   0.64861   -5.0433  0.171941 -0.227149  -4.05374 -0.622394  0.359996 -0.550493  0.321146  -4.98001  0.830775 -0.847835  0.435224  -4.21539  0.604785 -0.446577  -3.36133 -0.780358  0.319315 -0.956938  0.496963 -0.369366  -3.93273  -5.07217  0.590716  -0.21952  0.083285 -0.674398  0.554491 -0.852138  0.951445 -0.758538  0.277627 -0.632984   0.12714         
0.569018  -0.15537   0.10538 -0.293588  0.617603 -0.469344  0.473678 -0.189764  0.131077 -0.707602   0.26838  -3.26882  -2.24086 -0.980163  0.724387  -0.04532  0.870144 -0.186651  -1.62579 -0.140873  0.613971  -2.62094 0.0892666 -0.929106 0.0373547  -3.49636  0.497055 -0.191656 0.0282296 -0.950285  -1.71848-0.0881375  0.973601  -3.31087  0.594287-0.0473342  0.710593-0.0808435  -2.42056 -0.457198  0.081637 -0.800378  -1.98149 -0.060152  0.373791  -2.56579  0.249611 -0.459395  0.424299 -0.838221  0.896603  -3.17174  -1.85508 -0.168065  0.238075 -0.931974  0.946654 -0.689138  0.375164  -0.25782  0.243965 -0.513443  0.130284 -0.177252         
-0.323923  0.581347 -0.536637  0.528703 -0.357067  0.822993 -0.977844  0.138188 -0.434126  0.759758-0.00949126  -2.47637  -3.16514  0.701041 -0.393414  0.699423 -0.455641   0.19306  -3.33256  0.900784 -0.827876  -2.08045 -0.742302  0.112674 -0.589984  -2.55083 -0.676107  0.830897 -0.612964  0.595325  -3.91525  0.548021 -0.409345   -2.5215 -0.536149  0.176366  -0.49086  0.144169  -3.94382  0.769158  -0.82934  0.913114  -3.87964   0.44676 -0.702658  -2.46584 -0.849361  0.934629 -0.706565  0.273934 -0.523118  -2.33815  -3.17026 0.0553606 -0.334605   0.52327-0.0613422 0.0854518 -0.745842  0.122898 -0.748741  0.605365 -0.317148  0.385235         
0.925443 -0.506577  0.352855 -0.960387   0.45204 -0.274148  0.697195 -0.917661  0.814447 -0.869076  0.712027  -4.06996   -2.9597 -0.706229  0.967345 -0.365398   0.82577 -0.384777   -2.4563-0.0315561   0.37434  -3.45862  0.403943 -0.246925  0.361034  -4.10994 0.0865505 -0.877377  0.671102 -0.734184  -2.24865 -0.905026  0.473952  -3.37283  0.903043 -0.381909  0.986999 -0.223945  -2.80759 -0.182592  0.842799 -0.517533  -2.17568 -0.461837   0.34138  -3.56116   0.75341 -0.223487  0.368114 -0.110782  0.329081  -4.03941  -2.87309-0.0905179  0.995453 -0.398175  0.395489  -0.61269    0.3567 -0.368908  0.806055 -0.953734  0.992401 -0.354656         
-0.563005  0.362712 -0.259163  0.473434 -0.248238  0.785791 -0.743095  0.194098 -0.274026 0.0296335 -0.393506  -1.50313  -1.90088  0.521134 -0.869961  0.771813 -0.794916  0.318461  -1.69576  0.543046 -0.224067  -1.03195 -0.810572  0.122776 -0.977477  -0.76034 -0.371014  0.403455   -0.9859 0.0171514  -2.19669 0.0126957  -0.60683 -0.682548 -0.650044    0.7987 -0.794671  0.533128  -2.04465  0.613575 -0.374004  0.857814  -2.47826  0.302683 -0.698172 -0.935913 -0.635578  0.304544 -0.473464  0.155431 -0.894559 -0.793971  -1.59362  0.611377 -0.206915  0.597766 -0.825953  0.639912 -0.100375  0.318125  -0.44908  0.458968 -0.454848  0.189001         
0.926054-0.0814234  0.460616  -0.45262  0.591327 -0.820734  0.726798  -0.13361  0.314829 -0.735649  0.571551    -2.785  -2.12815 -0.171087 0.0251167  -0.14716  0.677541-0.0506912   -1.9144 -0.945006  0.847774   -2.5689  0.198462 -0.031312   0.56621  -2.99075  0.672048 -0.981353   0.84048 -0.594745  -1.73312 -0.224586  0.747459  -3.02722  0.232185-0.06146430.00958281  -0.78457  -2.17139 -0.478103  0.174871  -0.67806  -1.92425 -0.666555  0.681204  -2.85153  0.669698 -0.656331  0.587024 -0.714499    0.2996  -3.45479   -2.2421 -0.455855  0.455367 -0.663015  0.729728-0.0362865  0.369427 -0.792779  0.211066  -0.52147  0.503342 -0.491806         
-0.204047 0.0943327 -0.662282  0.782708 -0.827052  0.341868 -0.759697  0.402142  -0.93881  0.981201 -0.263741 -0.854621  -1.84754  0.181585 -0.856655  0.219977 -0.288095  0.138188  -1.77942  0.247139 -0.216102  -1.38708 -0.304025  0.763573 -0.754265  -1.25386 -0.632221   0.68334-0.0180975  0.117283  -1.74692  0.394208 -0.335215 -0.552365 -0.604633  0.305033 -0.227515  0.191137  -1.64178   0.69219 -0.497421  0.222449  -1.62054  0.750694 -0.698691  -1.03718 -0.529588  0.257302 -0.773247  0.594592 -0.124302 -0.690767  -1.57657  0.961882 -0.727103  0.634938 -0.983764  0.170934-0.0563982  0.115146 -0.125156 0.0415967 -0.436689  0.366588         
0.0864895 -0.333079 0.0692465 -0.848476  0.801111 -0.812128  0.453078 -0.165746  0.647877 -0.260445  0.987671  -1.94376  -1.43227 -0.577929  0.288369 -0.218757  0.941099 -0.637593  -1.31114 -0.959288   0.79986  -1.60647  0.363536 -0.610462  0.668508  -2.04349  0.394147-0.0816675  0.801996  -0.73516 -0.732843 -0.875057  0.309641  -1.67876  0.222388 -0.164159  0.544115 -0.465773 -0.572895 -0.671834 0.0935392 -0.235115  -1.03818 -0.252388  0.658834  -1.59169  0.389111 -0.586016  0.596576 -0.102359  0.448714  -2.44762  -1.14811 -0.967254  0.508469-0.0545671  0.965026 -0.913053  0.553911 -0.107517  0.724631 -0.419813 0.0537431 -0.416852         
-0.76278  0.229286 -0.386578  0.534654 -0.859157  0.194372 -0.918302 0.0904263 -0.444044  0.567553 -0.760857  -1.92876  -3.24676  0.885556 -0.744133  0.872036  -0.45088  0.105441  -3.20016 0.0911283 -0.569628  -2.41867 -0.113315  0.363079 -0.935972  -2.05422 -0.600391  0.248634 -0.975341 0.0987579  -2.93254  0.520615 -0.110141  -1.65385-0.0405591  0.773614 -0.555071  0.821375  -2.60191  0.333048 -0.215217  0.960204  -3.42322  0.368908 -0.969878  -2.54249 -0.922086  0.620991 -0.121464  0.044496 -0.852992  -1.92641  -2.86067  0.809931  -0.78576  0.962951 -0.550401  0.631703 -0.754509 0.0921354-0.0426038  0.556444  -0.65331  0.746117         
0.922391 -0.714652  0.819391  -0.22602   0.84695 -0.951506  0.766686 -0.342235  0.829249 -0.396619  0.100894  -4.54517  -3.02721 -0.129765   0.14774 -0.408307  0.131993 -0.598498  -3.42672 -0.152532  0.996216  -4.69541  0.789727 -0.312418  0.683584  -4.64219  0.393506 -0.756493  0.821314  -0.35847  -3.27807 -0.684439  0.676229  -4.20144  0.514267  -0.76812   0.35609 -0.970794  -3.54242-0.0918607  0.614429 -0.141789  -2.79771  -0.79751  0.539964  -4.40567  0.302286 -0.840724  0.912442 -0.727622  0.417096  -4.51694  -3.24636 -0.327769   0.04532 -0.901028  0.116916 -0.196081 0.0507828 -0.891324  0.612354 -0.851894 0.0342112 -0.957884         
-0.754753   0.22074-0.0727256  0.807367 -0.110141 0.0464187 -0.109531  0.587115 -0.805414  0.741844-0.0254219 -0.738628  -1.95537  0.836085 -0.923063  0.556108 -0.798914   0.67333  -2.18978  0.153203 -0.050264  -1.01485 -0.129063  0.249489 -0.538255 -0.799543 -0.416089  0.677511 -0.123112  0.164739  -1.73545  0.220008 -0.447249  -1.12511 -0.598529  0.282479 -0.542924  0.126896  -2.40683  0.864345 -0.543077 0.0241096  -1.61799  0.735435 -0.777367 -0.839888 -0.203589  0.223701 -0.033845  0.958342 -0.721213    -1.014  -1.80284  0.858699 -0.273537  0.909848  -0.54152  0.975341 -0.335337  0.827265 -0.467055  0.206519 -0.495315  0.155675         
0.949339  -0.67925  0.351665 -0.663442  0.494491 -0.942015  0.558214  -0.99115  0.874538-0.0972625  0.051973  -3.71096  -3.19105-0.0298166  0.993835 -0.543931  0.765984 -0.386578   -3.1641 -0.602924   0.20249  -4.08231  0.367687 -0.465316  0.627003  -4.28352  0.810755 -0.583941  0.163976 -0.667898  -3.52181 -0.480911  0.362743  -4.59197  0.748436 -0.951476  0.211219-0.00265511  -2.73285-0.0664083  0.753136 -0.351238  -3.60589 -0.879971  0.590197  -4.04011   0.79986 -0.248482 0.0502029-0.0432752  0.845363  -4.28441  -3.31483 -0.240577  0.956664 -0.530442  0.201147 -0.8385270.000732444 -0.722251  0.139897-0.0207526  0.835444 -0.943052         
-0.695608  0.521805 -0.361309  0.679006 -0.345683  0.601123 -0.224006  0.220283-0.0384838  0.457137 -0.198126  -0.61501  -2.14792  0.236366  -0.78399  0.100284 -0.847743    0.2949  -1.29786  0.511429 -0.423627 -0.381391  -0.24189  0.750938 -0.576739 -0.445632 -0.220008  0.548051 -0.727103  0.518357  -1.45515  0.320597 -0.862178 -0.421889 -0.919065  0.909818 -0.956725  0.810907  -1.85608  0.614154 -0.496536  0.367351  -1.25446  0.428388 -0.386731 -0.635213 -0.764824  0.893612-0.0259713  0.789178  -0.36961 -0.784327  -2.07755  0.811304-0.0810266  0.803797 -0.972747  0.154881 -0.939543  0.898556 -0.664113  0.195013 -0.353343  0.423444         
0.683004 -0.680013  0.306711 -0.238807  0.509384 -0.486709  0.718314 -0.440626  0.799341 -0.315561  0.981475  -3.62792  -2.26671 -0.481155  0.217261 -0.453749  0.358592  -0.45497  -2.49135 -0.388531  0.184332  -3.07905  0.988037  -0.39732   0.51442  -3.52932  0.786493 -0.142125 0.0956755 -0.866512  -2.68203-0.0925932  0.884915  -2.91211  0.565508 -0.792291  0.875088 -0.264534  -1.86225 -0.923582  0.525285 -0.816614  -1.93058-0.0779443 0.0751366  -3.30678  0.272408 -0.637501  0.525559 -0.502579  0.374065  -3.43682  -2.19651 -0.408765     0.133 -0.270974  0.233253 -0.793512  0.544328 -0.178442  0.572863 -0.129643  0.847957 -0.200415         
-0.100955  0.585559 -0.892972  0.227638 -0.331339  0.561632 -0.152348  0.318094  -0.15894  0.666646 -0.419568 -0.755349  -1.86558  0.289529 -0.717582  0.332774 -0.113041  0.423383  -1.94063  0.243965 -0.455336 -0.590762 -0.342418  0.195502-0.0670186  -0.81489 -0.152745  0.438398-0.0529191  0.362712  -2.25787  0.650441 -0.870479  -0.86668 -0.642842  0.733665 -0.562059  0.576464  -1.61585  0.910642-0.0912503  0.943083  -2.24886 0.0259102-0.0636311 -0.500855 -0.996399  0.458754 -0.613453  0.990173 -0.438826 -0.934798  -2.22604  0.370891  -0.09888  0.972961 -0.859676  0.123539 -0.707694  0.884182 -0.899411  0.725059  -0.61803  0.377514         
0.638966 -0.170049  0.325114-0.0302744  0.657247 -0.288797  0.137547-0.0187689  0.619343-0.00454726 0.0299997  -3.60694  -2.72142 -0.686941  0.208686 -0.965911  0.425489 -0.256783  -2.50059 -0.587512  0.707358  -3.12145  0.541368 -0.436506  0.361461  -3.06539  0.461348-0.00915555  0.882046 -0.157384  -2.10085 -0.347636  0.758263  -3.34778  0.606128 -0.368725  0.113315 -0.459578  -2.77278 -0.991424  0.946501 -0.490951  -2.36405 -0.969604  0.260445  -3.14163  0.110569 -0.835902  0.854122  -0.55855  0.643941  -3.78508   -2.8586 -0.535508  0.465041 -0.450728  0.228919-0.0140996  0.822199 -0.838069  0.176885 -0.381634  0.462447 -0.558184         
-0.486435    0.8652 -0.308298   0.53148  -0.83282  0.631062 -0.785241  0.208655 -0.182379  0.323435 -0.830378  -2.01929  -2.81177  0.198675 -0.114444  0.081637 -0.110416  0.511856  -3.19642  0.428907 -0.911069  -2.37761 -0.321268  0.911374  -0.02472  -2.39199   -0.3549  0.926695 -0.366192  0.900967  -2.97193 0.0376904 -0.987823  -2.44411 -0.410443   0.83224 -0.124577  0.126743  -3.01453 0.0819117 -0.342906  0.704367  -3.17955  0.106174-0.0737022  -2.67157 -0.288858  0.747368  -0.31193 0.0144047 -0.569475  -1.82507  -3.45168  0.240547 -0.217719  0.745384 -0.217933  0.834437  -0.78045  0.362285 -0.438551  0.999786 -0.679983  0.846004         
0.332865 -0.602527 0.0475478  -0.11597  0.703726-0.0513321  0.706656-0.0537736  0.350108 -0.117405  0.338206  -2.21111  -1.27446 -0.850246  0.358684 -0.908506  0.482284 -0.245186  -1.53616 -0.277963  0.537156  -2.89774  0.918394 -0.911069  0.183782  -2.82996  0.975982 -0.763237  0.788659 -0.743767  -1.37276-0.0741295  0.498489  -2.33709   0.51091 -0.758934  0.691549 -0.290872  -1.55877 -0.598132 0.0324107 -0.327464  -1.75064 -0.132969  0.411695  -2.73279  0.705039 -0.671743  0.551439 -0.664388  0.295511  -2.39233  -1.52041 -0.323893  0.843348  -0.39787  0.203711 -0.453536  0.975005 -0.279153  0.217566 -0.979858 0.0694906 -0.844478         
-0.367687  0.813776 -0.247963  0.668569  -0.61568  0.512528 -0.013184  0.220099 -0.124454  0.380627 -0.571154  -2.07915  -2.50253  0.166936 -0.365246  0.174993 -0.355541 0.0134281  -2.95631  0.144414 -0.556352  -1.28917-0.0690634    0.2266 -0.465529  -1.47418 -0.967162  0.591021 -0.932585  0.336192  -2.23839  0.310495  -0.72982  -1.95149 -0.862575  0.283609 -0.409925   0.16483  -2.19319  0.456099 -0.267037  0.604358  -2.43752   0.24723 -0.682608  -1.19451-0.0329295  0.587512 -0.637043  0.315073 -0.402173  -1.62747  -2.77048  0.123417 -0.328196  0.449232-0.0631733  0.240638  -0.29841  0.910978 -0.547197  0.222236 -0.929838  0.657064         
0.280343 -0.430555  0.114628 -0.574023   0.41438 -0.477493  0.316172 -0.8737140.00732444 -0.607257 0.0467238  -2.87286  -1.51454  -0.17423 0.0579241 -0.109653 0.0445875 -0.873257  -1.81173 -0.538041  0.439375  -2.965150.00961333 -0.149022  0.996979  -2.63033  0.470992 -0.982391 0.0811487 -0.828669   -1.9613 -0.100223  0.621204  -2.18741  0.920499-0.0409864  0.375378 -0.461531  -1.18384-0.0718101    0.7987 -0.279214  -1.80398 -0.146214   0.79458  -2.13752  0.446364 -0.973205  0.133183 -0.273141  0.969512  -2.19086  -1.27058 -0.477065  0.158574 -0.440504  0.173315-0.0648518  0.143284 -0.079928   0.96057 -0.127384 0.0597858 -0.887356         
-0.260323  0.884487  -0.35258  0.717063  -0.44554  0.909177  -0.72692  0.680563-0.000732444  0.791406 -0.782556   -1.3813  -2.22803  0.397443 -0.860591  0.441023 -0.363964  0.381237  -1.88543  0.468612 -0.156865  -1.64696 -0.476455  0.469375 -0.405011  -1.13294  -0.130070.00955229-0.0176397  0.871578  -2.47252  0.296915  -0.61211 -0.960171  -0.63976  0.165899 -0.183691  0.393872  -2.06699  0.361309  -0.87933  0.596179  -2.18802 0.0272225 -0.155858 -0.891199  -0.61919  0.807337 -0.104343  0.345256 -0.577563   -1.2884  -1.97268  0.722648 -0.320872  0.412671 -0.411023  0.295328 -0.402234  0.108371 -0.490921   0.59563 -0.758202  0.638813         
0.99707 -0.107212  0.166936 -0.482528  0.554888 -0.270394  0.856777 -0.806696  0.606616 -0.427198  0.296152  -2.07893  -1.08467 -0.862026  0.697043 -0.397534  0.628071 -0.594104  -1.59537 -0.445845  0.179601  -1.93559  0.705802 -0.478622  0.816645  -2.32833 0.0869778 -0.244789 0.0251778 -0.615284  -1.38455 -0.254067  0.641987  -2.26058  0.475478 -0.293069  0.930509 -0.674734  -1.66614 -0.740623  0.260903 -0.299356  -1.29211 -0.587512  0.674673   -2.4678  0.725211 -0.568377  0.114994 -0.838038  0.306436  -2.16759  -1.25222 -0.698111   0.30137 -0.906766  0.153294 -0.801202  0.467788 -0.818506  0.671499-0.0273751  0.823908    -0.515         
-0.679983  0.530412 -0.262795  0.755119-0.0880764  0.524094 -0.817042  0.918149 -0.826899  0.508835 -0.605182  -3.26555  -4.17179 0.0932951 -0.991089  0.707785 -0.651357 0.0684225  -4.54235  0.479568 -0.478286  -2.66564 -0.434004  0.967803 -0.858821  -3.33305 -0.984313  0.760399 -0.887051  0.710196  -3.98273  0.825159 -0.150304    -2.935 -0.382672  0.557299 -0.211524  0.516984  -4.44448  0.125675 -0.195379  0.632954  -4.48955 0.0242927 -0.759178   -3.4764 -0.438276  0.234901  -0.22956  0.558092 -0.736259  -2.64764  -3.74176  0.741356-0.0863979  0.963775 -0.277078  0.951628 -0.232521  0.532609 -0.535417  0.323069 -0.555712  0.619373         
0.998566-0.0856655   0.84518 -0.919614  0.890866 -0.133122  0.219031 -0.180883  0.163518 -0.530381  0.227149  -2.20702  -1.51877 -0.116703  0.666585 -0.600238  0.748314 -0.860897  -2.04589-0.0795007  0.523545  -2.31164  0.897458 -0.227912  0.658437  -2.67658  0.964629 -0.128574   0.88641 -0.306681  -2.05135  -0.36372 0.0765099  -2.80918  0.816523  -0.59331   0.12244 -0.633534  -1.91441 -0.932615  0.434706 -0.341044  -1.87391-0.0349132  0.317606  -2.72614  0.932188  -0.28544 0.0124821 -0.812098   0.94705   -2.2001  -1.49912 -0.690207  0.162297 -0.124729  0.159337 -0.615711 0.0890225-0.0729392  0.615955 -0.883023  0.752495 -0.555498         
-0.142247  0.204657  -0.61919  0.860805 -0.308908 0.0604266 -0.174108  0.260964 -0.618519  0.486038 -0.179662  -1.66733  -2.11299  0.457656 -0.147374  0.803461  -0.73336  0.528123  -2.08122   0.25547 -0.286142  -1.15574 -0.832423 0.0499588 -0.842524  -1.63488 -0.670492  0.421644 -0.806421 0.0551775  -2.67328  0.723289 -0.860073  -1.93641 -0.731986  0.535875 -0.259011  0.237281  -2.72977 0.0773339 -0.230811  0.667806  -2.99631  0.816614 -0.758141  -1.26048 -0.880795  0.698447 -0.528275   0.40669 -0.518876  -1.14061  -2.35695  0.882626 -0.515427  0.430647 -0.676992  0.162603 -0.929899  0.761803 -0.946287  0.607654 -0.713004  0.426862         
0.800501 -0.819056  0.789911 -0.963439  0.187902 -0.768883  0.293619 -0.324381  0.693777 -0.869961  0.980316  -2.79826   -1.5142 -0.141484   0.35725 -0.545885  0.920957 -0.126743  -1.48575 -0.517167  0.236763  -2.75954  0.475265 -0.725028  0.538011  -2.59126  0.244484 -0.211829  0.930357 -0.106052  -1.53416 -0.257332  0.440382  -2.24942  0.584216-0.0197455  0.716941-0.0411084  -2.00118 -0.975982  0.335704 -0.357341   -1.3718-0.0665914  0.989013   -2.0787    0.4579 -0.952483  0.341288 -0.648518  0.531877  -2.32953  -1.20877 -0.156438  0.632069  -0.42259  0.207007  -0.46147  0.147679  -0.42143 0.0596026 -0.897366  0.236122 -0.837001         
-0.162755  0.360424-0.0623798  0.112278 -0.873623   0.22132 -0.688833 0.0371715 -0.391247  0.676199 -0.646657  -3.63844   -3.9472  0.693625 -0.720084  0.556108 -0.125523  0.213416  -4.77266  0.874416  -0.34611  -3.04403 -0.562273 0.0440382 -0.371807  -3.71529 -0.329203  0.571459-0.0413526  0.109684  -4.56465  0.819422 -0.256966  -3.14114 -0.328227  0.179724-0.0918302  0.257912  -4.44349   0.54445-0.00128178  0.653859   -4.4788  0.982208 -0.418409   -3.6703 -0.337352 0.0260018 -0.516068  0.344188 -0.566057  -3.31912  -4.21377  0.849605  -0.49855  0.141484 -0.626362  0.881466 -0.634999  0.374096 -0.989135  0.652516 -0.620685  0.889431         
0.918546  -0.76046  0.641743 -0.692099  0.211707 -0.880703   0.97116 -0.565355  0.212897 -0.398968   0.69628  -1.41953 -0.794149 -0.139409  0.159642-0.0625935  0.661611 -0.844783  -1.26313  -0.83694 0.0849025  -1.97107  0.329814 -0.298105  0.470931  -2.01428 0.0672323-0.0727256  0.422681 -0.216498 -0.431101 -0.763054  0.249245  -2.02316  0.419172 -0.650594  0.479507 -0.600604  -1.02453 -0.198798  0.979553 -0.301431 -0.633958 -0.260628  0.954527  -1.71746  0.693014 -0.397595  0.617054 -0.800378  0.701559  -1.62279 -0.604294 -0.799982  0.601245 -0.128391  0.311991 -0.291665  0.784417 -0.442061  0.268044 -0.273537  0.665517 -0.187628         
-0.257179  0.450758 -0.233039  0.587664 -0.547868  0.709861 -0.251808  0.574908  -0.16071 0.0323801 -0.146733   -1.4285  -1.767770.00430311-0.0997955  0.793939 -0.343577  0.577441  -2.08495  0.414533 -0.423841  -1.45514 -0.514206  0.278146 -0.462294  -1.44885 -0.101138  0.787957 -0.857509 0.0768151  -1.87526   0.94174 -0.856685 -0.923873 -0.812128  0.567064   -0.4756  0.281991  -2.30398  0.855068 -0.522385  0.544237  -1.90541 0.0992157-0.00555437  -1.33047 -0.198645 0.0457472  -0.70864  0.823725 -0.518418 -0.932784  -1.90556  0.345408  -0.92645   0.42436 -0.140812 0.0612506 -0.488449    0.9476 -0.929594  0.660817 -0.669393   0.83517         
0.868252 -0.363018 0.0413526 -0.183721  0.727836 -0.171728  0.142186 -0.231849  0.736625-0.0705893  0.515641  -3.04679  -2.49078 -0.313669   0.46437 -0.978545  0.485916 -0.468093  -2.13512 -0.116916  0.833613  -3.04725  0.351787 -0.275246  0.472854  -3.29653  0.573504 -0.289377  0.629048 -0.841121  -1.74936 -0.708975 0.0186773  -2.98136  0.962096 -0.563921  0.175848-0.0150456  -2.49169 -0.929228  0.381787 -0.126377  -1.91752 -0.195196  0.479751   -3.2433 0.0281075 -0.448958  0.355327 -0.720847 0.0967437  -3.55587  -2.31789 -0.323862  0.960479  -0.57036  0.489853-0.0593585  0.139744 -0.712973  0.506912 -0.214698  0.431196 -0.435499         
-0.94113  0.928861 -0.771783  0.365093-0.0972625  0.229194 -0.753655  0.202246 -0.942564  0.507736 -0.820582  -1.86402  -2.24498  0.592883 -0.677206  0.344981 -0.903073  0.073336  -3.06342  0.953948  -0.28489  -2.09056 -0.578845 0.0804163 -0.129582  -1.28709 -0.126896  0.649251 -0.520493  0.159703  -2.40038  0.918332  -0.17478   -1.2361 -0.824213  0.775964 -0.175909 0.0126652  -2.60647  0.337321 -0.809748  0.292062  -2.82144  0.745842 -0.785272   -1.4425 -0.855251  0.585803  -0.62157  0.298379-0.0165716  -1.30812  -2.60266 0.0732139 -0.689657   0.60744    -0.236  0.655171 -0.630879 0.0603961-0.0332652  0.835627 -0.249763 0.0921964         
0.165258-0.0798669  0.629383 -0.516465  0.501907 -0.345164   0.69747 -0.652089  0.280496 -0.837977  0.579089  -3.61142  -2.69171 -0.867336  0.662099 -0.121769  0.909513 -0.449843  -2.81442 -0.435286  0.248451  -4.04441  0.431745 -0.984649  0.559404  -3.74438  0.903897 -0.439863  0.815058  -0.18305  -2.45159 -0.923246  0.264382  -3.93036  0.853542 -0.837886  0.571551 -0.987701  -2.86524 -0.495376  0.558153 -0.785394  -2.43511 -0.448408  0.830348   -4.2126  0.853877 -0.934721 0.0717795 -0.863002  0.358043  -3.56002  -2.93714 -0.431318   0.60033-0.0765404  0.756279 -0.717765  0.354381  -0.81225 0.0418409 -0.923978  0.923887 -0.408765         
-0.730186   0.24778 -0.319224   0.52266 -0.287454  0.482467-0.0849635  0.247353 -0.752373 0.0553911 -0.808771 -0.917992  -2.19559  0.662435 -0.842891 0.0374462  -0.31962  0.154241  -1.89974  0.570788 -0.694937 -0.798268 -0.646809  0.778954 -0.389294 -0.828084 -0.547075  0.733482 -0.295938   0.56148  -2.08175  0.577288 -0.726951  -1.17587-0.00515763  0.884518 -0.958434   0.15302  -1.79277  0.319376 -0.879025   0.85049  -1.91863  0.500137-0.0231025  -1.35441 -0.697806  0.474227  -0.77047   0.22132 -0.701193 -0.918175  -2.62175  0.736106 -0.678854 0.0187689 -0.927549  0.616291 -0.202887  0.290719 -0.565844  0.380078 -0.752403  0.488693         
0.325266 -0.364147 0.0463881 -0.768426   0.29957 -0.104038  0.527543 -0.154088  0.860164 -0.654195 0.0271615  -2.48757 -0.927374-0.00354015  0.143406 -0.320475  0.447981 -0.243171  -1.45647 -0.870174 0.0950652  -2.46178  0.460372 -0.754357  0.746239   -2.1071  0.199011 -0.102359  0.246315 -0.445418 -0.943213 -0.233985  0.501907  -2.11937  0.734153 -0.550615  0.432264 -0.221564  -1.05064 -0.225379  0.524216 -0.231483 -0.842196 -0.598346  0.271859  -2.62451  0.560869 -0.682913  0.282052 -0.679983  0.126102  -2.50954  -1.49252 -0.825434  0.411512 -0.975127  0.126804 -0.219886  0.568957 -0.318064  0.138432 -0.604419  0.534104 -0.935514         
-0.139988  0.860683 -0.515976  0.138493  -0.88403  0.172765 -0.136448 0.0383312 -0.605792  0.628498  -0.25193  -1.86079  -2.73365  0.416089 -0.987487  0.699423 -0.108921  0.273263  -2.08308   0.34315 -0.419599  -1.72367 -0.608722  0.701865 -0.257088  -1.96708 -0.502335  0.618763 -0.449446  0.485275  -2.15843  0.746818-0.0287484  -1.13841 -0.995605  0.970916 -0.588733  0.406201  -2.60193  0.129368 -0.745781  0.172582  -2.18602  0.940306 -0.984802  -1.71149 -0.116886  0.539232  -0.67101 0.0456557 -0.212836   -1.5332  -2.57694 0.0371715 -0.784661  0.986572 -0.231025  0.897763 -0.345134   0.21659 -0.792901   0.49736 -0.567919  0.852748         
0.863826 -0.668966  0.933042-0.0177007  0.886502 -0.151524  0.523057-0.0660726  0.491256 -0.4723960.000579852   -3.9513  -2.63009 -0.925443  0.298929 -0.402753  0.616962 -0.301157  -3.11848 -0.499619  0.139134  -3.70031  0.328227 -0.912503 0.0488907  -4.03562  0.599567 -0.854976  0.188482 -0.831385  -2.53149 -0.469314  0.246925  -3.69943  0.244545 -0.780206  0.523576 -0.419813  -2.85516 -0.447371  0.295602 -0.417859  -2.69607 -0.223182 0.0700095  -3.38008   0.53975 -0.521714  0.501755 -0.624958 0.0415052   -3.1804  -2.91626 -0.209296  0.284616 -0.594165  0.617176 -0.518967  0.924039 -0.808557 0.0623493 -0.459243  0.652577 -0.843867         
-0.686178  0.220679-0.00265511   0.29078 -0.6526380.00323496 -0.798669  0.903348 -0.518479   0.18009 -0.290719  -3.33508  -4.34563 0.0569781 -0.501633  0.159032 -0.786554  0.883511  -4.47491  0.349223 -0.224464  -3.38442 -0.355205  0.177282 -0.748589  -2.97178 -0.133274  0.883267 -0.246681  0.134159   -4.2419  0.254982 -0.595874  -2.89152  -0.43614  0.113224 -0.832484  0.475326  -4.14543 0.0953703 -0.425672  0.211493  -3.98512  0.644368  -0.93585  -3.53146 -0.503189  0.608905 -0.838801  0.224525 -0.192206  -3.29595  -4.45468  0.679617 -0.897732  0.838923 -0.162114  0.452681 -0.198218  0.416211 -0.980071  0.390515-0.0869472  0.012421         
0.296548 -0.447462   0.92996 -0.342479 0.0281991 -0.190771  0.574633 -0.716117  0.189367 -0.245735  0.639912   -1.7624 -0.715891 -0.836146  0.519333 -0.196722  0.932127-0.0769372  -1.34161 -0.401807  0.146245  -1.64494  0.926023 -0.787255  0.483077   -1.6648  0.246071 -0.275826  0.907224 -0.544023   -1.0075  -0.45735 0.0150151  -2.30536 0.0253609 -0.604785  0.611164 -0.285592  -0.56989 -0.489425  0.887967 -0.297647  -1.03777 -0.901059  0.490402  -1.86421  0.181097 -0.279275  0.246498 -0.150975  0.744957  -1.83247 -0.624488 -0.286081  0.110263 -0.261818  0.242897 -0.568041  0.560289 -0.861812  0.079165 -0.691549  0.669881 -0.962004         
-0.884396  0.780908 -0.419935 0.0575579 -0.358898  0.677023 -0.962279  0.170446 -0.505997  0.663411-0.0657369  -2.16959  -3.70403  0.788263 -0.775933  0.244392  -0.86816  0.438124  -3.12262  0.667104  -0.87521  -2.48426  -0.77691  0.533372 -0.879391  -2.29597 -0.580523  0.105014 -0.953276  0.711325  -3.12964   0.92993 -0.943907  -2.38889 -0.967406  0.389599 -0.455275  0.063509  -3.72075  0.545549 -0.934385  0.920408  -2.86337  0.190497 -0.141911  -2.01806 -0.247322  0.511368 -0.789422  0.211035 -0.279855  -2.53514  -3.42747  0.366527 -0.908628  0.903928 -0.736442  0.234199 -0.902799  0.467635 -0.392956  0.262703 -0.700156  0.795984         
0.139103 -0.152715  0.677755 -0.820856  0.490402 -0.924863  0.572893 -0.432356  0.970214 -0.927305 0.0857875  -2.88968   -1.3098 -0.938749  0.195196 -0.530534  0.909055-0.0236518  -1.87579 -0.654866  0.882046   -2.3893  0.144261 -0.706687 0.0643635  -2.33839  0.279214 -0.943083   0.66805 -0.786462  -1.37123-0.0262154  0.321879  -2.78085  0.717246 -0.102481  0.460585 -0.521989  -1.69482 -0.679739  0.316874 -0.823939  -1.11726 -0.210028  0.798639  -2.67053  0.875637 -0.783685 0.0319529 -0.711264   0.87698  -2.93445  -1.24217 -0.758873  0.779077 -0.306192 0.0196844 -0.320292  0.618305-0.0559404  0.454543  -0.50444  0.976623 -0.117954         
-0.250221  0.994507 -0.408399  0.517045 -0.768426  0.897214 -0.517838  0.167821 -0.584002 0.0314951 -0.717643  -2.54433  -3.83255  0.813013 -0.200995  0.783685  -0.86932   0.39024  -3.42501  0.374859 -0.137425  -3.07819 -0.764428 0.0982086  -0.66509   -2.7446 -0.984741  0.862239 -0.834773  0.419843   -3.9704   0.59978 -0.588458  -2.93552 -0.229987  0.878201 -0.222755  0.873928  -3.97657  0.808008 -0.287423  0.252358  -3.71957  0.156835 -0.868709  -2.72632 -0.739891 0.0747093-0.0385449  0.458327 -0.116428  -2.93076  -4.01905  0.801019 -0.707999   0.50972 -0.969604  0.195441 -0.599414  0.949034 -0.297189  0.317087  -0.79812 0.0314341         
0.907163 -0.237892  0.817042 -0.530931  0.038667 -0.056917  0.408429 -0.542894   0.84933 -0.470199  0.478835  -4.16554   -2.4005 -0.436415  0.717154 -0.232276 0.0633564  -0.59444  -2.33476 -0.336894  0.112094  -3.89096  0.873714 -0.998993  0.808466  -4.26393  0.839625 -0.434767  0.736656 -0.761864  -2.48644-0.00405896  0.683096  -3.83347  0.960784 -0.351451  0.837519 -0.832179  -2.59365 -0.346385   0.59801 -0.949889  -3.04835 -0.728263  0.260323   -4.2566 0.0138859 -0.863063  0.373699 -0.758843 0.0782495  -3.81882  -3.25807 -0.330821  0.181677-0.0554521  0.963134 -0.728843  0.238716 -0.969146  0.454115 -0.101047  0.963469 -0.139958         
-0.299326  0.314554 -0.608722  0.747276  -0.64687  0.366924 -0.356029  0.223579  -0.76812  0.237495 -0.387005  -3.15652  -4.27218  0.334361 -0.167486  0.604938 -0.305704  0.192938    -4.298  0.550707 -0.776757  -2.73838  -0.20838  0.199957 -0.121372   -2.6399 -0.486465  0.732994 -0.156865  0.462874  -3.43008 0.0926542-0.0451674  -2.35357  -0.86462  0.657094 -0.900571  0.609638  -4.07891  0.210852 -0.500504  0.160527  -3.96959  0.121525 -0.381726  -2.72837 -0.371532   0.12714  -0.10181  0.419507  -0.34257  -2.68003  -4.27032  0.686209 -0.186468  0.984497 -0.877224  0.289529 -0.428785   0.43852 -0.958464  0.756737 -0.771477  0.546983         
0.116214 -0.156102  0.988495 -0.550859  0.438673 -0.290078  0.971953 -0.375896  0.842341 -0.827601  0.959716  -3.84587  -3.40018 -0.532243  0.475845 -0.130131  0.910733 -0.242409  -3.75566 -0.526048    0.6021  -4.530740.00485244 -0.992248  0.730888  -4.07214 0.0678732 -0.329112  0.378643 -0.673299  -3.64021 -0.219001  0.614246    -4.594  0.396588 -0.429792  0.507584 -0.919248  -3.05349 -0.817499  0.746941 -0.628559  -3.36811-0.0338755  0.141087  -4.50324  0.986572 -0.345531  0.787378  -0.74691  0.989441  -4.24149  -3.58424 -0.705069  0.208716 -0.837733 0.0888394 -0.746757  0.562212 -0.179449  0.343455  -0.68453 0.0209662 -0.856075         
-0.547319  0.194189 -0.661458  0.826441  -0.75985  0.789331 -0.367504  0.665853-0.0739463  0.234565 -0.214484  -3.34539  -4.20595  0.555467-0.0660115  0.536363 -0.692923  0.299417  -4.29964  0.272683 -0.558794  -3.67917 -0.999451  0.166723 -0.263863  -2.94612 -0.226417  0.295419 -0.185156 0.0435194  -4.81681  0.236671 -0.829707  -3.10741 -0.511795  0.804407  -0.25428  0.973815  -4.83576 0.0822779 -0.589251  0.598041  -4.67151  0.662648 -0.946684  -3.73856 -0.532853   0.49675 -0.494797  0.547685 -0.598895  -3.62222  -4.86439  0.725272 -0.234687   0.65627 -0.474929  0.469588  -0.53151  0.514206 -0.642323  0.784783-0.0108341   0.17069         
0.281991 -0.360485  0.832698 -0.958769  0.456038 -0.327464  0.153996 -0.259438  0.964934 -0.952605  0.668966  -2.78047  -2.31479 -0.429365  0.861904-0.0521561  0.966735 -0.420667  -2.76952 -0.300424  0.117588  -3.28339  0.428449-0.0145268  0.847316  -2.98791  0.104648 -0.204169  0.859676  -0.72396  -2.71361 -0.499161  0.631031  -2.78725  0.665334 -0.415662  0.236366 -0.486282  -2.45545 -0.421216  0.779351 -0.813135  -2.20755 -0.705039  0.706626  -2.88521   0.18421-0.0592669  0.788598 -0.128513  0.251045   -3.5522  -2.72676 -0.584704  0.750786 -0.981109  0.412458 -0.327219  0.729331 -0.265053  0.388256  -0.45793  0.539872-0.0943937         
-0.509781  0.086581 -0.207251  0.832606 -0.872982  0.867489 -0.442824  0.822748 -0.517167  0.975829 -0.340709  -2.27713  -3.64375  0.679434  -0.28721  0.406018 -0.546587  0.162755  -2.81484  0.619007 -0.249214  -1.94164-0.0281686   0.32664 -0.108127  -2.45444 -0.345195  0.127659 -0.185308   0.36494  -3.26535  0.860012 -0.457625  -2.48817  -0.81225  0.398297-0.0495621  0.669576  -2.88204  0.750359 -0.569231  0.517991  -2.71019  0.358318 -0.829157  -2.29794  -0.61449 0.0116276 -0.733177   0.29603 -0.526017  -2.42347  -3.31107  0.621265 -0.743309  0.853236 -0.778375  0.688742-0.0481887  0.754234 -0.614429  0.604389 -0.906888  0.730735         
0.920133 -0.304147  0.990265 -0.832759  0.856349  -0.87225  0.845271 -0.521714  0.232673 -0.798334  0.747307  -2.00995  -1.34123 -0.330943  0.265877 -0.826533  0.747002 -0.582354  -1.19812 -0.738182  0.424299  -2.31455 0.0350047 -0.394086  0.173345  -2.42683 0.0905484 -0.638142  0.445326 -0.116886 -0.778404 -0.672689  0.249001  -2.32887  0.407605 -0.387127  0.789575 -0.236488  -1.37129 -0.485672  0.710837  -0.45674 -0.888515 -0.319803   0.22248  -2.06818  0.997528 -0.832362  0.893002 -0.356883   0.50383  -2.29151  -1.38243 -0.672842  0.698538 -0.813715  0.949644 -0.423322  0.880734 -0.804041  0.854091  -0.62447  0.910703 -0.683157         
-0.702414  0.444807 -0.886776  0.843959 -0.751854  0.304575  -0.47264 0.0223701 -0.113346  0.414319 -0.906308  -1.01119  -1.48875   0.90936 -0.221717  0.042085 -0.382366  0.236091  -2.12182  0.667714 -0.613605 -0.460302 -0.1852470.00781274 -0.669881 -0.849291 -0.983398  0.807855 -0.422926  0.630238  -1.80403  0.790735 -0.444594 -0.680218 -0.406507  0.516892-0.0520341  0.400006  -1.74599  0.543199  -0.45613  0.873531  -1.86394  0.786706 -0.294809 -0.841081-0.00708029  0.499924  -0.33253  0.117649  -0.76458  -0.64323  -2.01366 0.0773339 -0.602863  0.903531 -0.803156  0.900113  -0.11948  0.736747 -0.140385  0.418622 -0.850185 0.0551775         
0.546159 -0.440229   0.10184 -0.250954  0.405225 -0.627461  0.936338 -0.490768  0.661214 -0.317942  0.335276  -3.01279  -2.11423 -0.440046 0.0784936  -0.28132  0.767174 -0.180578  -2.30131 -0.917417   0.28779  -3.22773  0.715232 -0.458937  0.724662  -3.24238  0.166204 -0.209082  0.401257-0.0552995  -2.34449 -0.567644  0.983886  -3.57231  0.264046 -0.422346  0.932737 -0.872982  -1.81081 -0.338939  0.557024 -0.512467  -2.17084 -0.456313  0.954344  -3.15564  0.817072 -0.492904  0.616199 -0.885067  0.388318  -3.43806  -1.68602 -0.672658  0.942595 -0.663686  0.715934  -0.98825  0.157048 -0.3745540.00656148 -0.387219  0.524125 -0.450362         
-0.640797  0.722037 -0.340587  0.938566 -0.162145  0.803735 -0.347606  0.592914  -0.87817  0.503281-0.0518509  -1.84481  -1.88198  0.448408 -0.260109  0.272652 -0.715842  0.972533  -2.73653  0.496994 -0.417585  -1.40739 -0.361278  0.538408  -0.96469  -1.05295 -0.281655   0.91409 -0.163579 0.0425123  -2.69881   0.85696 -0.306223  -1.10587 -0.935301  0.238258-0.0273141  0.868282  -2.19352  0.788965 -0.265511  0.617756  -2.14862  0.525925 -0.609241  -1.04016  -0.10123  0.789789 -0.808496  0.465682 -0.955199  -1.07877  -2.61309  0.796655 -0.704031  0.135197 -0.564898 0.0567949 -0.886013 0.0397961 -0.485855  0.430647 -0.231361  0.972228         
0.675771 -0.221839    0.8081 -0.291513  0.868343 -0.296304   0.31782 -0.494766  0.266182 -0.464522  0.573595  -4.98212  -3.98319 -0.959868  0.690359 -0.244697  0.542863 -0.668538  -4.05342 -0.916257  0.473708  -4.34102  0.359722 -0.537278  0.516861  -5.00266  0.472274 -0.495132  0.993133 -0.742302  -3.63607-0.0121769  0.351176  -4.58566  0.875301 -0.599445  0.431532-0.0987884  -3.49838 -0.309214  0.333537   -0.9335  -3.52883  -0.69274   0.16773  -4.96567 0.0334788 -0.869106  0.473861 -0.166204  0.545213  -4.68481  -3.48696  -0.28724  0.373547 -0.859127  0.727042 -0.975036  0.698904 -0.554735  0.111393 -0.949339  0.770745 -0.224219         
-0.840571  0.371349 -0.209357  0.194555 -0.869503 0.0680258 -0.958312  0.862453 -0.827204  0.195776 -0.918058  -2.66227  -4.55155   0.49971 -0.793054  0.925901-0.0626545   0.82522  -3.76204  0.184912 -0.426832  -3.54221 -0.446883  0.246529-0.00814844  -3.57471 -0.380627 0.0245064 -0.672994  0.804956  -3.80272  0.886868 -0.558153  -2.77443-0.0391247  0.640614  -0.74105   0.77749   -4.5778   0.81576-0.0130314  0.703818  -4.16738  0.154057-0.0380566  -3.15453 -0.287606  0.709311 -0.676717  0.793237 -0.738487  -3.11443  -4.33746  0.482315 -0.937437  0.876461-0.0792261  0.111972 -0.488357  0.241585  -0.91644  0.843623 -0.441084  0.309915         
0.82461 -0.102115  0.749565-0.0325022 0.0112613 -0.581866  0.880398 -0.861873 0.0631733 -0.191198  0.602802  -3.51142  -2.69783-0.0934172  0.492019 -0.544786  0.589709 -0.499252  -2.82921  -0.81283  0.747673  -3.37296  0.859096 -0.957183  0.565538  -3.67625  0.149297-0.0744346  0.486465 -0.380932  -2.27805 -0.834468  0.866634  -3.83755  0.881954 -0.996551 0.0515458 -0.617176  -2.55876 -0.724601 0.0560015 -0.672872  -2.83727 -0.607166  0.128391  -3.71678 0.0374157 -0.788995  0.981567 -0.653432   0.61507  -3.12537  -2.03497 -0.219733  0.882046 -0.728202  0.998535 -0.336863  0.646931 -0.922697  0.434126 -0.513901    0.0412  -0.83282         
-0.817347  0.845882 -0.133732  0.690146 -0.639454  0.800653 -0.195349  0.159093 -0.976135  0.444929 -0.645466  -2.18107  -3.05853  0.266366 -0.211127   0.82989 -0.938444  0.247261  -3.13453  0.809687 -0.406903  -2.45717 -0.332682   0.46028 -0.815943  -2.75698 -0.420881  0.717246 -0.216712  0.120609  -3.80197  0.708518 -0.716025  -2.52834 -0.358745  0.802026 -0.958831  0.830775  -3.08487   0.95175 -0.714377 0.0848109  -3.35636  0.249275  -0.84695  -2.27659 -0.956786 0.0866115 -0.452803  0.553423 -0.755089  -1.96756  -3.24793  0.837428 -0.193701  0.455397 -0.361797 0.0187384-0.0671712  0.920255 -0.697745  0.860591 -0.869961  0.896451         
0.508225 -0.534196  0.566942 -0.552141  0.599719 -0.187262  0.514603 -0.920133 0.0678732 -0.451125  0.563585  -2.87876  -1.69244-0.0439467  0.874203-0.00967437  0.423322 -0.125889   -1.6879 -0.685263  0.875301  -2.72656  0.103977-0.0467849  0.886349  -2.91608  0.337962 -0.525132  0.146947 -0.174413  -1.57962 -0.862575 0.0457472  -2.48083   0.92465 -0.691794  0.558489 -0.131169  -1.80118 -0.913205  0.740074 -0.683798  -1.65536 -0.777734  0.101901    -2.312  0.219489-0.0807215  0.654927  -0.79989  0.238563  -2.53774   -1.2643 -0.173223  0.358715 -0.599017  0.546068-0.0268258  0.141697-0.0565203  0.240394 -0.284036  0.726127 -0.104251         
-0.0867031  0.598773 -0.754295  0.503342 -0.237709  0.704672 -0.949461  0.810999 -0.340495  0.203894 -0.374737 -0.784041  -1.62965  0.951537 -0.905026  0.812738 -0.858821  0.691824  -2.45569  0.449355 -0.123447  -1.41019  -0.90933  0.507797 -0.403668 -0.607644 -0.543107  0.570391-0.0603656  0.192663  -2.04818   0.15009 -0.295389 -0.875444 -0.534684  0.800623 -0.446272  0.731254   -1.5665  0.524979 -0.385052  0.713919  -1.81724  0.389691 -0.301492  -1.16421 -0.499374   0.74987 -0.652364  0.199377 -0.645619 -0.521093  -2.07113  0.565111 -0.363445   0.20011 -0.428205  0.730247 -0.763115  0.653829-0.0954009  0.684713 -0.908597  0.559862         
0.242286 -0.971221  0.900845 -0.928495  0.399213 -0.815699  0.111148 -0.997742  0.295877 -0.197394  0.596515  -1.94646 -0.985649-0.0144963  0.227454 -0.467544  0.559343-0.00158696  -1.27322 -0.611682  0.622181  -2.38919  0.985015 -0.134251  0.494888  -1.95959  0.178869 -0.425275  0.240211 -0.325816  -1.43445  -0.92465  0.404279  -2.25302  0.644002 -0.763268  0.717887 -0.343913  -1.61933 -0.203101  0.401318  -0.91934  -1.12683 -0.782525  0.353893  -2.23877  0.970336 -0.5724660.00958281-0.0586261 0.0563066   -2.2843  -1.69365 -0.850917  0.694205 -0.799707  0.385235 -0.998138  0.323893  -0.53441  0.795892 -0.462935  0.216132 -0.866756         
-0.164373 0.0831019 -0.711661  0.712363 -0.429884   0.48323 -0.111118  0.146275 -0.936003  0.425794 -0.246498  -3.29891  -4.93635  0.758293 -0.265297  0.702628 -0.339366  0.611957  -4.77191  0.182043 -0.342143  -4.10396-0.0673849  0.717215 -0.786981  -3.57947 -0.887875  0.162084 -0.469649  0.224219  -4.33782 0.0397046 -0.811945   -3.7685 -0.207587  0.714499 -0.969054  0.182043  -4.31911  0.863643-0.0407422  0.544206  -5.09645  0.153447 -0.667318  -4.02015  -0.30607  0.527116  -0.79107   0.18424-0.0506912  -4.10277  -4.97856  0.368511 -0.337291  0.438765 -0.294076  0.199561 -0.716727 0.0205084 -0.375042   0.51915  -0.94763  0.128361         
0.542436 -0.866237  0.391858 -0.239662   0.17542 -0.170171  0.560656 -0.422742   0.76278  -0.38316   0.84228  -2.11314  -1.13224 -0.208258  0.942442 -0.746483  0.513382 -0.579485  -1.76492 -0.670217  0.754021   -1.8844  0.392804 -0.547655  0.406842  -2.58031  0.812677 -0.353069 0.0318613-0.0383007  -1.27226 -0.848811  0.457778  -2.42763  0.680624 -0.289102  0.295419 -0.958586 -0.942934 -0.922544 0.0553606 -0.332621 -0.931429 -0.199713  0.149937  -2.52053  0.680502-0.0923185  0.561205   -0.8829  0.708914  -2.26356   -1.3777  -0.95587  0.779077 -0.658376  0.531693 -0.203772  0.334147 -0.934446  0.366131  -0.25367  0.901852 -0.948332         
-0.565935  0.752098 -0.646474  0.395245 -0.981567  0.839473 -0.571062  0.493088 -0.778222 0.0636921 -0.401379 -0.532271  -1.62892  0.889798 -0.682638  0.327616 -0.895779   0.46086  -1.10855 0.0859401 -0.828547 -0.220036 -0.697562  0.416639 -0.981475 -0.104005 -0.595843 0.0704672 -0.710135  0.418409  -1.44624  0.205451 -0.781274 -0.139071 -0.018128  0.621845 -0.292734  0.886349    -1.618  0.295816 -0.697134  0.528794  -1.71929  0.118625 -0.210028-0.0259386 -0.767449  0.246559 -0.384503   0.96115 -0.610981-0.0190719  -1.12045  0.950804-0.00585955  0.499496 -0.975066  0.379894-0.0686972  0.598407 -0.802332  0.566973 -0.377667  0.430067         
0.924314 -0.672414  0.680624 -0.563829  0.693991 -0.953917  0.753716 -0.523362  0.484237 -0.961577   0.44142  -3.82366  -2.73345 -0.828303  0.409772 -0.674612   0.80105 -0.312693  -2.38911 -0.938993 0.0363781  -3.78212  0.217963 -0.615162  0.637776  -3.59819  0.379955 -0.886593  0.787561 -0.514969  -2.56932  -0.46321  0.721854  -3.32453  0.675192 -0.347453 0.0566729 -0.678213  -2.74825 -0.399548  0.717917 -0.876858  -2.79534  -0.60744   0.75576  -3.22727  0.740715 -0.468398  0.825404   -0.7257  0.837031  -3.42048   -2.4177 -0.191198  0.504013 -0.5031590.00106815 -0.597003  0.313028 -0.834712  0.216834 -0.859401  0.173894  -0.17716         
-0.807001 0.0587786 -0.199347  0.630207 -0.658406  0.476485 -0.219886   0.17951 -0.882809 0.0708029  -0.98001  -2.87286  -3.93991   0.54915 -0.547655  0.515915-0.0436415  0.691641  -4.07315  0.239113 -0.348277  -3.02225  -0.69042  0.934233-0.00271615  -2.19498 -0.807642  0.873684-0.0473952  0.978393  -3.73092  0.475509 -0.719016   -2.5009 -0.606891  0.600757 -0.182989  0.547166  -3.32069  0.149693 -0.369732  0.620869   -3.7933  0.863399 -0.195288   -2.9454 -0.274148   0.73632 -0.948302  0.983184 -0.967071  -2.15885  -3.22944 0.0149846 -0.259804  0.710379  -0.48674  0.224281 -0.959685  0.965636 -0.642842  0.031312 -0.589373  0.293069         
0.90347 -0.842891  0.407788 -0.979095  0.720511 -0.870022   0.58095 -0.627644  0.475845 -0.885678  0.534654  -1.73597 -0.603338-0.0777306 0.0200812-0.0800501  0.938017 -0.654317 -0.585058 -0.496109  0.234931  -1.86528  0.351176 -0.664846  0.203314   -2.0461  0.021363 -0.603992  0.772881 -0.958983  -1.01476 -0.595935   0.71218  -2.47675  0.268288 -0.016419  0.767327    -0.206  -1.22439 -0.962279  0.404523 -0.505051 -0.657692 -0.583789  0.436903  -1.64191  0.541551 -0.528825  0.317728-0.0402234 0.0812098  -1.91301  -1.12783 -0.260048  0.759636  -0.66216  0.808985 -0.130833  0.401196  -0.81341  0.613575   -0.4832  0.422895 -0.381359         
-0.40318  0.456313-0.0109561  0.495285  -0.22602 0.0973846  -0.94821  0.533708 -0.265358   0.40022 -0.122959  -2.92444  -4.31682  0.939512 -0.250923 0.0955535 -0.298593  0.757378  -4.48815  0.719749 -0.667043  -2.98929 -0.936613  0.598071 -0.866482  -3.08121 -0.663839  0.149785 -0.747185  0.107181  -3.76434  0.677969 -0.140782  -3.58278 -0.614521  0.729331 -0.405438  0.867702  -4.49971  0.753349 -0.074221  0.773522  -4.64104   0.96585  -0.88876  -2.75723 -0.216773  0.824488 -0.998108  0.703482 -0.759575  -3.62591    -4.253   0.26429 -0.989776  0.399548 -0.844783  0.685904 -0.530229  0.700339 -0.162206   0.11536 -0.973357  0.545518         
0.995575 -0.830775  0.213965 -0.563555 0.0206305  -0.62157  0.933012-0.0637532  0.753288 -0.108615   0.26252  -1.93542 -0.983639 -0.159764  0.163976 -0.790979  0.439863-0.0574664  -1.21936 -0.419721  0.115268  -2.34421  0.683004-0.0248726  0.119114  -2.38444   0.87759-0.0833766  0.253487 -0.573412  -1.72518-0.0751061  0.944334   -1.8445  0.100558 -0.374157  0.192969 -0.245064 -0.987942 -0.938871  0.130833 -0.170415 -0.885155  -0.70687  0.459029   -2.4748  0.473647 -0.101718   0.55388  -0.27958 0.0821863  -2.32645  -1.24967 -0.865596  0.436537 -0.463546  0.971068 -0.758507  0.739311 -0.448622  0.821986 -0.328227  0.039491  -0.38905         
-0.870113  0.397839 -0.721885 0.0686361 -0.450056  0.405377 -0.646626  0.883786 -0.9415570.00500504 -0.970946  -1.96646  -2.88281  0.263955 -0.183111  0.894772 -0.176275   0.11124  -2.85177  0.605884 -0.550371  -2.27564 -0.326731   0.73632 -0.588275  -1.66707 -0.305124  0.476974-0.07501450.00799585  -2.79476  0.640919 -0.562243  -1.78909   -0.6816 0.0857265   -0.7257  0.551042  -2.90323  0.434889 -0.826289  0.939879   -3.2606   0.00412 -0.555956  -2.11588 -0.986023  0.339152 -0.049501  0.575182 -0.629139  -2.19953  -2.81424  0.401807-0.0862758  0.895199-0.0647603  0.717856 -0.921018  0.380596 -0.626087 0.0221564 -0.920225 0.0155034         
0.716269-0.0891751  0.739769 -0.395367  0.359966 -0.911771  0.700461 -0.159795  0.332133 -0.583575   0.76574  -2.12704  -1.73551 -0.277444  0.232124 -0.635456   0.82226 -0.975341  -1.77821 -0.787957  0.443037  -2.04894  0.104099-0.0233772   0.40083  -2.69321  0.089114  -0.90289   0.49498 -0.561388  -1.43683 -0.728904  0.933988  -2.00789  0.812647 -0.498795 0.0992157 -0.498489  -1.27523  -0.65743  0.912503 -0.826044  -1.46399 -0.554857 0.0877407  -2.05593  0.927641-0.0152593   0.04944 -0.896939  0.480514  -2.86583  -1.14446 -0.710898  0.425336  -0.23542  0.502884 -0.433058   0.46791 -0.318491    0.1077 -0.597583  0.414319-0.0283822         
-0.723441  0.336436 -0.972747  0.428449-0.0960723  0.103519 -0.205817  0.557848 -0.926969  0.838404  -0.66451  -1.35495  -1.83769  0.725669 -0.734855  0.741569 -0.192267  0.206366  -1.73881  0.975738 -0.763939   -1.1123 -0.751457  0.677084 -0.183752 -0.933641 -0.872127  0.433332 -0.296548  0.883969  -2.14693  0.192541 -0.498978 -0.600898 -0.448805    0.7481  -0.90936  0.300333  -2.35605  0.522477 -0.641438 0.0730308  -1.72679  0.556352 -0.462569 -0.752392 -0.972411  0.108524 -0.618152 0.0513932 -0.216407  -0.73582  -1.61301   0.13068 -0.440046  0.525346 -0.162358  0.273263 -0.272622  0.584582 -0.300058  0.954894 -0.820612  0.531205         
0.581133-0.0712607  0.625843  -0.55266  0.504135 -0.443648   0.77401 -0.243934  0.228004 -0.263619   0.18482  -3.72002  -2.42448 -0.633961  0.615131 -0.441633  0.600787 -0.861019  -2.45212 -0.678945  0.983825  -3.51368  0.505081 -0.988464 0.0639973  -3.75661  0.796686 -0.640645  0.762993 -0.126072  -2.59022 -0.385388  0.196692  -3.25116 0.0451064 -0.468398  0.251747 -0.669454   -2.0267 -0.446089  0.765099 -0.425031  -2.08459 -0.705863  0.588672  -3.41956  0.294107-0.0975066  0.320078 -0.345317  0.916868  -3.44038  -1.87771   -0.4991  0.616718 -0.305918  0.420148 -0.107608  0.727714-0.00112918  0.736351  -0.49443  0.937956 -0.127445         
-0.478774  0.725303 -0.404157   0.65276 -0.929807  0.894986 -0.516373   0.88406  -0.23722   0.85345  -0.34431  -2.37771  -3.31304  0.527726 -0.296731  0.464156  -0.86227  0.495865  -2.65582  0.907346-0.0733665  -1.66208 -0.101352  0.748497 -0.668538  -1.79374 -0.505387  0.597034  -0.67745  0.938169  -3.07741  0.160955 -0.466628  -2.43105 -0.556719  0.794488 -0.722098   0.81872  -3.61468  0.344218 -0.535386  0.126164  -3.04622  0.200629 -0.874264  -2.32961 -0.566607  0.960723 -0.219672  0.585284 -0.161962  -2.02263  -3.28087  0.153996 -0.941679  0.618183 -0.153172  0.305277  -0.72573  0.890439 -0.449782  0.116611-0.0651265  0.920713         
0.105808  -0.23014  0.512803 -0.113529  0.218757 -0.920408 0.0442213 -0.644246  0.456587 -0.101901  0.660512   -2.2983 -0.790655 -0.432356  0.703574-0.0376293  0.291086 -0.167577 -0.606262 -0.170751  0.503281  -2.44738  0.776605 -0.248238  0.124302  -1.53354  0.140843 -0.874783   0.32313 -0.470565 -0.800482 -0.872738  0.248177  -2.03316  0.438643 -0.361126   0.41612 -0.461043  -1.35754 -0.632954  0.704276 -0.920591 -0.612183 -0.737999  0.227454  -1.77457  0.963744 -0.176611  0.881405-0.0779443 0.0318003  -2.13399 -0.689578 -0.933317  0.901273-0.00314341  0.738426 -0.735374  0.659261-0.0746788  0.973571  -0.221870.00103763  -0.51442         
-0.651753 0.0174871 -0.656789  0.819758 -0.716788  0.482833 -0.468917  0.190497 -0.8880280.00323496 -0.150975  -2.92045  -4.03828  0.873287 -0.259407  0.890622 -0.701804  0.432814  -3.70728  0.478896  -0.24427  -2.68573 -0.267098  0.278665-0.0582598  -2.75803 -0.345622  0.546129 -0.483261   0.37373  -3.44061  0.374248 -0.980834  -3.29021 -0.645985  0.303079 -0.929533   0.80929  -4.03364  0.228278 -0.523698 0.0523698  -3.82334  0.515122-0.0565508   -3.1082 -0.159276  0.723807 -0.369701  0.629933 -0.106449  -2.44561  -4.04728  0.174902 -0.481796  0.501846-0.0528275  0.767022 -0.420911  0.876217 -0.340861  0.710562-0.0444349 0.0121158         
0.805994-0.0189215 0.0412305 -0.156133  0.269478-0.0451369  0.401776 -0.688894 0.0334178-0.0515763  0.333323  -3.90348  -3.03202 -0.875851   0.88815 -0.251595  0.408795 -0.348216  -3.06355 -0.341563  0.767052  -4.01661  0.809229 -0.130833  0.597369  -3.44069  0.262276 -0.183355  0.441053 -0.798029  -3.14051-0.0190435  0.603992  -4.27055  0.633839 -0.255104  0.358013 -0.576373  -2.84058  -0.54619  0.745628 -0.265725  -3.36968 -0.229347  0.269723   -3.7876  0.327097-0.0807215  0.249031 -0.547899  0.465987   -3.4883  -3.27794 -0.716697  0.169591 -0.655263  0.473373 -0.269356  0.403211 -0.117252 0.0849025 -0.983062  0.994232-0.0173345         
-0.757988  0.666158 -0.3712580.00747703 -0.222633  0.570238 -0.954131  0.805353 -0.894894  0.241005 -0.225135    -2.487  -3.36099  0.965453-0.0135197  0.849116 -0.226539  0.470412   -2.6157  0.768517-0.0422681  -2.56204 -0.139286  0.595782 -0.368572  -1.95534 -0.533403  0.858791 -0.979705  0.393811  -2.70917  0.660604 -0.557176   -1.8072  -0.35725     0.352  -0.29725  0.975188  -3.58545  0.502731 -0.622028  0.804804  -3.28066 0.0779443 -0.275155  -1.96696 -0.140996  0.225929  -0.58385  0.638478 -0.690512  -2.00865  -2.75974  0.896542 -0.951018   0.50441  -0.87698  0.611591 -0.498795   0.12009 -0.238929  0.939756 -0.149144  0.633625         
0.19718 -0.890774  0.851863 -0.758599  0.421949 -0.520981  0.737266 -0.705954  0.974242-0.0657064  0.343974  -3.46418  -2.23328 -0.167455  0.559435 -0.911649  0.469527 -0.856044  -2.53371 -0.269478  0.540727    -3.275  0.493637 -0.964446  0.498825  -3.78167  0.301584 -0.144597  0.382366 -0.311502  -2.57015 -0.652455  0.779809  -3.76693   0.27131 -0.228462  0.843013 -0.718619  -1.93567 -0.513901  0.904843 -0.413678  -2.56685 -0.758141  0.981109  -3.01224  0.774865 -0.637928  0.938597 -0.208319  0.860073  -2.93194  -2.22761 -0.552355  0.312326  -0.59032  0.640584 -0.662801  0.100223 -0.706992   0.33607 -0.981079  0.308115   -0.4644         
-0.313059  0.124424 -0.188147  0.294168  -0.21305  0.860317 -0.862545 0.0566729 -0.273476  0.519822 -0.707419  -1.62379  -1.671340.00732444 -0.949675  0.167699 -0.952177 0.0617389   -2.1463  0.854274 -0.233039 -0.712414  -0.60857 0.0278634  -0.61507  -1.55714 -0.209387  0.113102 -0.432325  0.201514  -2.39829  0.848109 -0.711325 -0.653452 -0.331095 0.0193182  -0.59093 0.0195318  -2.28534  0.495712 -0.846034  0.336528  -1.68339  0.467208 -0.795679 -0.827347 -0.902463  0.295206 -0.377697 0.0640278 -0.554735   -0.7581  -2.30856 0.0220038 -0.239937  0.954039 -0.641194  0.792138  -0.10004  0.200171 -0.4095890.00732444  -0.76989  0.613269         
0.795099 -0.298776  0.585223 -0.999023  0.441725-0.0510575  0.941313-0.0235603  0.294565-0.0974456  0.833033   -4.1437  -2.71412 -0.510422  0.108036 -0.845882  0.988922 -0.144169  -2.96141-0.0326243  0.589953  -3.51084   0.72042-0.0770898  0.844264  -4.09469  0.399396 -0.336558  0.412702 -0.214209  -3.28396 -0.601062  0.291177  -3.56055  0.991729 -0.359355  0.636769 -0.590869  -3.33743 -0.864193  0.197485 -0.317484  -2.64826 -0.902432  0.627155  -4.23684  0.697623 -0.676351  0.465682 -0.512314   0.85461  -4.12819  -3.35821 -0.143406   0.22013 -0.136509  0.255715  -0.86874  0.890896 -0.421949  0.992706 -0.419019  0.333323 -0.683737         
-0.832698  0.845454 -0.748131  0.757866 -0.453627 0.0561541-0.0848109  0.272652-0.0394299  0.792779 -0.738426  -1.67023  -3.15257  0.202094 -0.458449  0.674612 -0.394208  0.659963  -2.85727  0.814356 -0.582141  -2.35137 -0.565538  0.903134 -0.813349   -1.5278 -0.514206  0.887265 -0.106754         1  -2.81607  0.764855 -0.958892  -2.29344 -0.208197  0.383251 -0.576159  0.645466  -2.94147  0.535356 -0.211249  0.600726  -3.08976  0.261025 -0.883755  -1.40383 -0.834193  0.759819 -0.266945  0.359752 -0.339763  -1.53344  -2.37682  0.254433 -0.239235  0.178838 -0.361126  0.261757 -0.365276  0.694601 -0.118503  0.116489  -0.29725   0.77926         
0.115299 -0.696066  0.881954 -0.955535 0.0944548 -0.338481  0.904508 -0.969939 0.0100406-0.0999176   0.94116  -3.56262  -2.25127 -0.107761   0.92468 -0.882443  0.482559 -0.665731  -2.74845 -0.709159  0.680349  -3.46975   0.38023  -0.79696  0.649312  -3.37536  0.696341 -0.337413  0.797723  -0.70925  -2.93373 -0.693014  0.653829  -4.14708  0.435652 -0.725852  0.504868 -0.896237  -3.19762  -0.92523  0.639241 -0.930357  -2.51577 -0.240333  0.473586  -3.70688  0.486007-0.0241096  0.345958 -0.913022 0.0902738  -4.19762  -2.94651 -0.192969  0.783624 -0.621967  0.334361 -0.840358   0.91583 -0.840358  0.320322 -0.500107  0.460524 -0.503403         

-1.08953 -0.255033  -1.09207-0.00907297  -1.08865  0.738685  -1.02032  0.389671 -0.342232 -0.386788 -0.780542  0.220392 -0.621011  0.691472  -1.26526 -0.196278 -0.498667  0.265143  -1.18728   0.40575 -0.935126  0.599923  -1.19078  0.290533   -1.5135  0.454759  -1.14414  0.223996 -0.626742  0.841861  -1.15199 0.0649706  -1.40485  0.142712  -1.17664  0.225826 -0.355475  0.112117  -1.14381  0.507392   -1.2348 0.0677056  -1.08477 -0.387338  -1.25788 -0.203268 -0.469236 -0.113976  -1.27859  0.640732  -1.12277  0.240543  -1.51238 -0.192395  -1.28537  0.255374 -0.219437  0.422905 -0.751725 -0.259781 -0.866698  0.240888 -0.347758  0.812639 -0.800636  0.213792 -0.717537  0.208636 -0.707539 -0.254317 -0.996468  0.778979 -0.317021 -0.255121  -1.12565 -0.300172  -1.13424 -0.324249 -0.487009  0.362627  -1.10035  0.597218  -1.17994 -0.166776 -0.746296  0.186387 -0.738839-0.0156729  -1.47332 0.0993804 -0.680101  0.183777  -1.03307  0.787364 -0.395266  0.445735 -0.904448  0.601601 -0.639261  0.159307         
0.146844 -0.476112  0.441677 -0.150071  0.148239  -0.23675  0.010637 -0.450773  0.751566 -0.558175   0.44784 -0.630843 0.0200729 -0.879377  0.121558 -0.149472  0.832675 -0.520767  0.754788 -0.457378   0.87165 -0.624623  0.241086 -0.606934  0.447175 -0.523003-0.0627162 -0.889347  0.735842 -0.926836  0.521006 -0.573637   0.59606  -1.06108 -0.107328 -0.987177  0.709267 -0.247959 -0.104065 -0.730362  0.764817 -0.986944  0.708935 -0.674977  0.373685 -0.805368  0.549993 -0.814429  0.686351 -0.600872  0.392767 -0.358186-0.00662656  -0.15868  0.458032  -0.37217  0.140714 -0.523362  0.522589 -0.212263  0.736183 -0.713248  0.176452 -0.551094   0.65109 -0.537349   0.80261 -0.195175  0.283518 -0.226606  0.556391  -0.39913  0.778463 -0.976077   0.68965 -0.297743  0.254276 -0.499405  0.212332  -1.07218  0.174704 -0.923859   0.86358 -0.406404  0.687245  -1.00899  0.353618  -0.35933 0.0736797 -0.350903  0.545156  -1.12199  0.926056 -0.325605   0.63706 -0.409234  0.227256  -1.05137  0.569249 -0.124651         

