-0.205432   1.35016 -0.300772         
1.25506 -0.268182  0.541696         
-0.135572  0.875628 0.0291976         
0.922322 0.0169276  0.999839         
0.306148   1.17922  0.204218         
1.22753  0.234858  0.446324         
-0.318772  0.382688-0.0353824         
0.703535 -0.517332  0.355068         
0.0213776  0.599345  0.266538         
0.755813 -0.349752  0.603923         
0.147978  0.544137 0.0702776         
0.898456 -0.257832   1.28094         
-0.389882  0.906849  0.134908         
1.16546  0.193258  0.876513         
-0.000382381  0.511542  0.141568         
0.414158 -0.420222  0.819535         
-0.234062  0.382878 -0.244922         
1.1 -0.286972   1.06673         
-0.0895824  0.605937 -0.463742         
1.0093 -0.173482  0.629253         
-0.539552  0.432318  0.310698         
0.517951 -0.191632  0.640545         
-0.213672  0.570261 0.0581876         
1.31918 -0.439382  0.962087         
0.000817619   1.13024-0.0116124         
0.363738-0.0348924  0.514014         
0.251218  0.402528 -0.419462         
1.1017-0.0293424   0.62727         
0.0457376  0.645672 -0.625882         
1.13082 -0.628722  0.873706         
0.232298  0.487341 -0.433652         
1.17309  0.286678   1.16018         
0.237088  0.511207 -0.613862         
1.03646 -0.433982  0.498633         
0.0515676   1.24529  0.141048         
1.00115 -0.313892  0.915028         
-0.397242   1.20657  0.151818         
1.0266 -0.421102  0.553232         
-0.0706924   1.01848 -0.125382         
0.425998 -0.419362   1.30004         
-0.612552   1.02584 -0.266402         
1.32931 -0.284322   1.31964         
0.306148  0.411408-0.0715124         
0.476507  0.189908  0.874041         
-0.532682  0.696516  0.111288         
0.775985 -0.353082   0.83809         
-0.110612  0.805283 -0.275802         
0.750777 -0.191302  0.522987         
0.00480762  0.719191  0.326108         
0.608867-0.0447524   0.92458         
-0.169512   1.26528 -0.210312         
1.33017 -0.326042  0.435668         
-0.499962  0.896594  0.193138         
0.993613 -0.201682  0.533791         
-0.0605624  0.558847-0.0603424         
0.695265 -0.162702   1.09646         
-0.104872   1.02123 -0.511382         
0.955709 -0.157182   0.93697         
0.342708  0.504309 -0.554072         
0.612468-0.0501824   1.01488         
-0.112962   1.18945 0.0179376         
0.959371  0.126518  0.682447         
-0.509392  0.368198  0.354738         
0.459905 -0.634702  0.409948         
0.106128  0.711623 -0.529512         
0.8479480.00419762  0.808579         
-0.0793024   0.53019 -0.393852         
0.961904 -0.532042  0.568643         
0.315828   1.08669 -0.531582         
0.364288 -0.166272   1.27728         
-0.316942   1.13418  0.113088         
0.799942 -0.368982   1.09643         
0.290308    1.0097 -0.285422         
0.969961 -0.441212   1.09676         
-0.165822  0.944875 -0.544862         
1.06982 -0.287492  0.779709         
-0.474052  0.881457 -0.353572         
1.18191 -0.155812   1.10277         
-0.0947424   1.12774  0.344118         
1.05273 -0.505762   1.27807         
-0.556732  0.789047 -0.497862         
1.14577-0.0797524  0.866717         
-0.248432   1.17181 -0.482932         
1.27014-0.0293724  0.365108         
0.235008  0.425478  0.204948         
0.664014 -0.207532  0.699354         
-0.311332  0.673688  0.213678         
1.2901 -0.106822  0.937581         
0.0171976  0.917713-0.0278424         
0.397888-0.0276024   1.21908         
0.322238   1.20184 -0.106492         
1.25451 -0.522852  0.509833         
-0.560852   1.03161 0.0551076         
0.462102 -0.613282  0.453313         
-0.0227824   0.95931  0.349978         
0.595774 -0.323412  0.414308         
-0.591242   0.72267 -0.484062         
1.13073 -0.380152  0.941975         
0.133298  0.464483 -0.123122         
0.911823-0.0659624  0.425268         

-0.868538  0.687051 -0.963878  0.591956 -0.931284 -0.121415 -0.798681  0.212519 -0.633912  0.259212  -0.64618  0.336729 -0.356956  0.516117 -0.458888  0.564428 -0.428248 -0.216785 -0.981884 -0.280416 -0.698489 0.0404246  -1.18043 -0.308035 -0.641725-0.0637655 -0.396569 0.0927029  -1.01285-0.0591878 -0.515134 -0.118973 -0.592834  0.235347 -0.920938  0.617835  -1.05298  0.243739 -0.528196  0.502353 -0.469844  0.213404 -0.663484 -0.151567 -0.521543 -0.248951  -1.08332  0.156426 -0.897165 -0.280233 -0.908029  0.436891 -0.950084  0.403626  -0.75269-0.0571735  -1.12684   0.34619 -0.836585-0.0338574  -1.20264 -0.230793 -0.352409 -0.145158 -0.854744-0.0225656 -0.876778-0.0928497 -0.604919  0.656075  -1.10248  0.298978 -0.662294  0.467135 -0.674715 -0.299368 -0.698001 -0.149095  -0.41189 -0.260579  -1.08255    0.4386 -0.692446-0.0358411 -0.617371-0.0174384  -1.28898  0.467715  -1.29182  0.210596 -0.430811 -0.175768  -1.09674  0.509983 -0.376427  0.497074  -0.42602 -0.151903  -1.27696  0.373352         
0.480349 -0.452266-0.00520054  -1.19892-0.0946806 -0.954783  0.360259  -0.86866  0.443605  -1.16019 -0.105453 -0.980236  0.467471 -0.506863  0.117057 -0.972118  0.171746 -0.379632  0.465731  -1.25367  0.658913 -0.979473  0.312772  -1.28294  0.330687  -1.27326 -0.259785 -0.365044  0.117881  -0.43014  -0.14354 -0.827674  0.579046 -0.650148-0.0649252 -0.729618  0.399445 -0.791723  0.156975 -0.758916  0.322172  -0.70441  0.237666 -0.476619 0.0415538 -0.672823 -0.279745 -0.562499 0.0911159 -0.878213  0.215876  -1.21891  0.256679  -1.28379  0.372405 -0.389306   0.54633 -0.850227 -0.146775 -0.947245  0.248043 -0.487423  0.106925 -0.512479  0.106711 -0.648896   0.20907  -1.05008  0.151238 -0.974865  0.557744 -0.909341  0.203547 -0.890603 -0.296347 -0.457942   0.60044   -0.5661 0.0965482 -0.968517  0.159325  -1.14307 0.0284309 -0.913004 -0.080154 -0.636079  0.555761  -0.32183 -0.308371 -0.413538   0.68107 -0.363579-0.0597676 -0.665254  0.575872 -0.801581 0.0421642 -0.762212  0.125663 -0.483822         
-1.05695  0.298795  -1.19514-0.0944676 -0.347282  0.423585  -1.19468 -0.298819 -0.829383  0.614173 -0.980053  0.471072 -0.550016  0.136833  -1.03208   0.43332 -0.372795  0.346587 -0.948527  0.306852  -1.10431  0.433656 -0.828925  0.281766  -1.20795  0.406708 -0.950602  0.116599  -1.13715  0.218348  -1.01666  0.518803 -0.818915  0.439668 -0.757848  0.464632 -0.318991  0.389618  -1.16886  0.614967  -1.21983  0.125938  -1.16096  0.482669 -0.742863  0.203608 -0.911539  0.508701  -1.14603  0.607032 -0.692477 -0.297995 -0.428095 -0.237629 -0.4581560.000903229 -0.870644 0.0362436 -0.974437 0.0105775 -0.449427  0.626991 -0.769933  0.274472 -0.645906  0.254604 -0.690951 -0.265218 -0.690707  0.555974 -0.340873  0.538731 -0.769597  0.591406  -1.18595 -0.153276  -1.22395  0.368499 -0.608002 -0.201007  -1.27638 -0.209796 -0.685885  0.296201 -0.313132-0.0673362 -0.986523 -0.248799  -1.25434 0.0595598  -1.14716  0.467623  -1.04325  0.278866 -0.529813 -0.198626  -0.78623  0.248714 -0.729069 -0.237843         

