-10.641  -9.32251  -10.2146         
-9.75442  -10.0276  -8.89654         
-10.0166  -8.91402  -10.3076         
-9.76302  -10.5655  -9.01648         
-10.8045  -9.28943  -10.6516         
-8.99697  -10.5158  -9.54347         
-10.2053  -9.32761  -10.4012         
-9.53428   -10.145  -8.93704         
-10.2667  -9.24054  -10.5869         
-9.21454  -9.90161  -9.39457         
-10.3222  -8.81621  -10.6227         
-9.49098  -9.96801  -9.49336         
-9.88301  -8.98861  -10.6984         
-9.66029  -10.1023  -9.17493         
-9.96191   -8.9219  -10.3729         
-9.66069  -10.0914  -9.27851         
-10.2001  -8.97479  -10.2132         
-9.22721  -9.93111  -9.22708         
-10.3604  -9.47865  -10.0306         
-9.3086  -10.1988   -9.5077         
-9.85691  -9.59727  -10.2689         
-9.65672  -10.0981  -9.63872         
-10.1534  -9.01062   -10.521         
-9.76992  -10.4732  -9.76182         
-10.1915   -9.1554  -10.1206         
-9.28437  -9.82232  -9.20404         
-10.6353  -9.63594  -10.4031         
-8.83544  -10.1283  -9.70582         
-10.7706  -9.56508  -10.6617         
-9.72892  -10.2739  -8.87575         
-10.4897  -9.38279  -10.1928         
-8.84591  -10.0665  -9.18823         
-10.0627  -9.50181  -10.2291         
-9.43104  -10.5656  -8.86321         
-10.4594  -9.32383  -10.1406         
-9.15149  -10.6328  -9.62709         
-9.97221  -9.12817  -10.1594         
-9.44792  -10.5109  -9.03344         
-9.92441  -9.43519  -10.1843         
-9.09283  -9.93281  -9.08993         
-10.4531  -9.06094  -10.0662         
-9.40986  -9.86941  -9.77122         
-9.85661  -9.58635   -10.293         
-9.16013  -10.6845  -8.97314         
-9.92251  -9.73512  -10.3067         
-9.04532  -10.2967  -8.95391         
-10.1207    -9.567  -9.92341         
-9.48561  -10.0713  -9.68694         
-10.6906  -8.82049  -10.6068         
-9.1806  -10.7185  -9.19888         
-10.5891   -9.5576  -10.8057         
-9.32679  -10.5664  -9.25275         
-10.1282  -8.84734  -10.3125         
-9.62028  -10.3469  -9.03723         
-10.0405  -8.94915  -10.7784         
-9.69585  -10.1961  -9.21903         
-10.7879  -9.69728  -10.2379         
-8.81478   -10.058  -9.17258         
-10.3097  -8.91906  -9.89091         
-9.79202  -10.2118  -9.80122         
-10.2006  -9.11536  -10.5771         
-9.72152  -10.3504  -9.47968         
-10.6594  -9.66905  -10.4919         
-9.39262  -10.6385  -9.65312         
-10.5634  -8.90044  -9.84891         
-9.76512  -10.6014  -8.89953         
-9.83961  -9.73142  -10.5237         
-8.85976  -10.6693   -9.1749         
-10.0393  -8.92907  -10.3446         
-9.3043  -9.84141   -8.8872         
-10.807  -9.24994  -10.7393         
-8.91817  -10.3745  -9.76492         
-9.88731  -9.66982  -10.0457         
-9.51005  -10.7646   -9.5688         
-10.5701  -9.64162   -10.063         
-8.86086  -10.6931  -8.92071         
-10.1406  -9.34394  -10.4807         
-9.06268  -10.1947  -9.26346         
-10.1309  -9.54554  -9.81202         
-9.33884  -10.1772  -9.59624         
-10.053  -9.38904  -10.4912         
-9.57335  -10.7243  -9.52705         
-9.99041  -9.46504  -9.99781         
-9.39103  -10.4569  -9.72082         
-10.0312  -9.38151  -10.3742         
-9.13635  -10.7473  -9.37333         
-10.1875  -9.00952  -10.4268         
-8.8706  -9.89401  -9.28684         
-10.2728  -9.07412    -10.37         
-8.9186  -10.6019  -8.82934         
-10.3399   -9.1423  -9.81812         
-8.92425  -10.3947  -8.91186         
-9.82692  -9.70542  -9.96511         
-9.19263  -10.0443    -9.481         
-10.656  -9.34015  -10.6585         
-9.68016  -9.84891  -9.28159         
-10.2991  -9.23642  -9.97791         
-9.71882  -10.7715  -9.16489         
-10.3855  -9.07156  -10.0112         
-9.80122  -10.1652  -9.37989         

0.220937  0.464994  0.240316    1.2532-0.0732927  0.673588 -0.542025  0.637271  0.137378   1.07652   -0.2333   1.22451-0.0338927   1.01579  -0.30038  0.636233 -0.157126  0.979109  -0.18682   1.32156-0.0456727  0.544434 -0.604527    1.3074 -0.630926  0.381068 -0.655432  0.458463 -0.307491  0.838754 -0.189414   1.02815  -0.40573   1.15554 -0.305141  0.781593 0.0530243  0.816506 -0.399382   0.47241 -0.338772   1.09398 -0.671424  0.954297 -0.165213   1.30041 -0.489076  0.708226  0.270194   0.78556 -0.522066   1.06746 -0.506136   1.20937-0.0492437  0.920483 -0.153097   1.12074 -0.345883   1.17437 -0.251031  0.375086 -0.557437  0.758521 -0.414488  0.420284 0.0343463  0.451078 0.0616913  0.983473-0.0538217   1.30883 -0.633398    1.1892 -0.276667   0.98152-0.00773874  0.640781 0.0580293  0.692693  -0.44989  0.495512 -0.109731    1.1675 -0.570163   1.06541 0.0852823   1.28887 -0.356686  0.974409 -0.219719  0.763984 -0.301936  0.403896-0.00471674  0.581117  -0.15621  0.456846 -0.398741  0.539337         
1.11931 -0.517946  0.415248 0.0236653   1.19741 -0.568973  0.369074 0.0944373  0.703801 -0.169577   1.20183 -0.521059   0.46356 -0.229851  0.527618 -0.447601  0.700444 -0.284205  0.626467  0.304497  0.333215 -0.227013  0.362604 -0.529818  0.493102 -0.385862   1.08962 -0.380552  0.917797 0.0358113  0.447812-0.0753367   0.37887 -0.384031  0.460538 -0.175376  0.798683 -0.560672  0.835702  0.303673   1.21267 -0.639959  0.8782150.00480426   1.23409 -0.229974  0.920635 -0.104268   1.17653 -0.658026  0.676976  -0.29394  0.491148 -0.284022  0.427151 -0.144949  0.674412 -0.402281  0.437405 0.0881203     1.303   0.23815  0.523345 -0.458771  0.351556 -0.237756    1.1621 -0.548312  0.450589   0.31646   1.05904  0.234213   1.23913 -0.496888  0.576387  0.140887  0.470091 0.0707553  0.929058   0.22402   1.02357 -0.670935   0.55423 -0.179649  0.484526  0.257132  0.561555  0.275626  0.441342 -0.226311  0.668888  0.127887   1.16112   0.13869  0.531341 -0.531161  0.798378-0.0461617  0.868723 -0.298427         

